{"learner":{"attributes":{"best_iteration":"99","best_ntree_limit":"100","scikit_learn":"{\"n_estimators\": 100, \"objective\": \"reg:squarederror\", \"max_depth\": 3, \"max_leaves\": null, \"max_bin\": null, \"grow_policy\": null, \"learning_rate\": 0.1, \"verbosity\": null, \"booster\": null, \"tree_method\": null, \"gamma\": null, \"min_child_weight\": null, \"max_delta_step\": null, \"subsample\": null, \"sampling_method\": null, \"colsample_bytree\": null, \"colsample_bylevel\": null, \"colsample_bynode\": null, \"reg_alpha\": null, \"reg_lambda\": null, \"scale_pos_weight\": null, \"base_score\": null, \"missing\": NaN, \"num_parallel_tree\": null, \"random_state\": 42, \"n_jobs\": null, \"monotone_constraints\": null, \"interaction_constraints\": null, \"importance_type\": null, \"gpu_id\": null, \"validate_parameters\": null, \"predictor\": null, \"enable_categorical\": false, \"feature_types\": null, \"max_cat_to_onehot\": null, \"max_cat_threshold\": null, \"eval_metric\": null, \"early_stopping_rounds\": null, \"callbacks\": null, \"_estimator_type\": \"regressor\"}"},"feature_names":["ret","ret_exc","dolvol","div12m_me","ret_1_0","ret_6_1","ret_12_1","at_gr1","ebit_sale","ebit_bev","sale_bev","niq_be","niq_su","resff3_12_1","resff3_6_1","ivol_ff3_21d","iskew_ff3_21d","dolvol_126d","ami_126d","betadown_252d","rvolhl_21d"],"feature_types":["float","float","float","float","float","float","float","float","float","float","float","float","float","float","float","float","float","float","float","float","float"],"gradient_booster":{"model":{"gbtree_model_param":{"num_parallel_tree":"1","num_trees":"100","size_leaf_vector":"0"},"tree_info":[0,0,0,0,0,0,0,0,0,0,0,0,0,0,0,0,0,0,0,0,0,0,0,0,0,0,0,0,0,0,0,0,0,0,0,0,0,0,0,0,0,0,0,0,0,0,0,0,0,0,0,0,0,0,0,0,0,0,0,0,0,0,0,0,0,0,0,0,0,0,0,0,0,0,0,0,0,0,0,0,0,0,0,0,0,0,0,0,0,0,0,0,0,0,0,0,0,0,0,0],"trees":[{"base_weights":[-4.9729407E-1],"categories":[],"categories_nodes":[],"categories_segments":[],"categories_sizes":[],"default_left":[0],"id":0,"left_children":[-1],"loss_changes":[0E0],"parents":[2147483647],"right_children":[-1],"split_conditions":[-4.9729407E-2],"split_indices":[0],"split_type":[0],"sum_hessian":[3.5434E4],"tree_param":{"num_deleted":"0","num_feature":"21","num_nodes":"1","size_leaf_vector":"0"}},{"base_weights":[-4.4756606E-1],"categories":[],"categories_nodes":[],"categories_segments":[],"categories_sizes":[],"default_left":[0],"id":1,"left_children":[-1],"loss_changes":[0E0],"parents":[2147483647],"right_children":[-1],"split_conditions":[-4.4756606E-2],"split_indices":[0],"split_type":[0],"sum_hessian":[3.5434E4],"tree_param":{"num_deleted":"0","num_feature":"21","num_nodes":"1","size_leaf_vector":"0"}},{"base_weights":[-4.0281075E-1],"categories":[],"categories_nodes":[],"categories_segments":[],"categories_sizes":[],"default_left":[0],"id":2,"left_children":[-1],"loss_changes":[0E0],"parents":[2147483647],"right_children":[-1],"split_conditions":[-4.0281076E-2],"split_indices":[0],"split_type":[0],"sum_hessian":[3.5434E4],"tree_param":{"num_deleted":"0","num_feature":"21","num_nodes":"1","size_leaf_vector":"0"}},{"base_weights":[-3.625308E-1],"categories":[],"categories_nodes":[],"categories_segments":[],"categories_sizes":[],"default_left":[0],"id":3,"left_children":[-1],"loss_changes":[0E0],"parents":[2147483647],"right_children":[-1],"split_conditions":[-3.625308E-2],"split_indices":[0],"split_type":[0],"sum_hessian":[3.5434E4],"tree_param":{"num_deleted":"0","num_feature":"21","num_nodes":"1","size_leaf_vector":"0"}},{"base_weights":[-3.2627875E-1],"categories":[],"categories_nodes":[],"categories_segments":[],"categories_sizes":[],"default_left":[0],"id":4,"left_children":[-1],"loss_changes":[0E0],"parents":[2147483647],"right_children":[-1],"split_conditions":[-3.2627877E-2],"split_indices":[0],"split_type":[0],"sum_hessian":[3.5434E4],"tree_param":{"num_deleted":"0","num_feature":"21","num_nodes":"1","size_leaf_vector":"0"}},{"base_weights":[-2.936518E-1],"categories":[],"categories_nodes":[],"categories_segments":[],"categories_sizes":[],"default_left":[0],"id":5,"left_children":[-1],"loss_changes":[0E0],"parents":[2147483647],"right_children":[-1],"split_conditions":[-2.936518E-2],"split_indices":[0],"split_type":[0],"sum_hessian":[3.5434E4],"tree_param":{"num_deleted":"0","num_feature":"21","num_nodes":"1","size_leaf_vector":"0"}},{"base_weights":[-2.6428744E-1],"categories":[],"categories_nodes":[],"categories_segments":[],"categories_sizes":[],"default_left":[0],"id":6,"left_children":[-1],"loss_changes":[0E0],"parents":[2147483647],"right_children":[-1],"split_conditions":[-2.6428744E-2],"split_indices":[0],"split_type":[0],"sum_hessian":[3.5434E4],"tree_param":{"num_deleted":"0","num_feature":"21","num_nodes":"1","size_leaf_vector":"0"}},{"base_weights":[-2.3785944E-1],"categories":[],"categories_nodes":[],"categories_segments":[],"categories_sizes":[],"default_left":[0],"id":7,"left_children":[-1],"loss_changes":[0E0],"parents":[2147483647],"right_children":[-1],"split_conditions":[-2.3785945E-2],"split_indices":[0],"split_type":[0],"sum_hessian":[3.5434E4],"tree_param":{"num_deleted":"0","num_feature":"21","num_nodes":"1","size_leaf_vector":"0"}},{"base_weights":[-2.1407416E-1],"categories":[],"categories_nodes":[],"categories_segments":[],"categories_sizes":[],"default_left":[0],"id":8,"left_children":[-1],"loss_changes":[0E0],"parents":[2147483647],"right_children":[-1],"split_conditions":[-2.1407416E-2],"split_indices":[0],"split_type":[0],"sum_hessian":[3.5434E4],"tree_param":{"num_deleted":"0","num_feature":"21","num_nodes":"1","size_leaf_vector":"0"}},{"base_weights":[-1.9266737E-1],"categories":[],"categories_nodes":[],"categories_segments":[],"categories_sizes":[],"default_left":[0],"id":9,"left_children":[-1],"loss_changes":[0E0],"parents":[2147483647],"right_children":[-1],"split_conditions":[-1.9266738E-2],"split_indices":[0],"split_type":[0],"sum_hessian":[3.5434E4],"tree_param":{"num_deleted":"0","num_feature":"21","num_nodes":"1","size_leaf_vector":"0"}},{"base_weights":[-1.7340116E-1],"categories":[],"categories_nodes":[],"categories_segments":[],"categories_sizes":[],"default_left":[0],"id":10,"left_children":[-1],"loss_changes":[0E0],"parents":[2147483647],"right_children":[-1],"split_conditions":[-1.7340116E-2],"split_indices":[0],"split_type":[0],"sum_hessian":[3.5434E4],"tree_param":{"num_deleted":"0","num_feature":"21","num_nodes":"1","size_leaf_vector":"0"}},{"base_weights":[-1.5606155E-1],"categories":[],"categories_nodes":[],"categories_segments":[],"categories_sizes":[],"default_left":[0],"id":11,"left_children":[-1],"loss_changes":[0E0],"parents":[2147483647],"right_children":[-1],"split_conditions":[-1.5606155E-2],"split_indices":[0],"split_type":[0],"sum_hessian":[3.5434E4],"tree_param":{"num_deleted":"0","num_feature":"21","num_nodes":"1","size_leaf_vector":"0"}},{"base_weights":[-1.4045583E-1],"categories":[],"categories_nodes":[],"categories_segments":[],"categories_sizes":[],"default_left":[0],"id":12,"left_children":[-1],"loss_changes":[0E0],"parents":[2147483647],"right_children":[-1],"split_conditions":[-1.4045583E-2],"split_indices":[0],"split_type":[0],"sum_hessian":[3.5434E4],"tree_param":{"num_deleted":"0","num_feature":"21","num_nodes":"1","size_leaf_vector":"0"}},{"base_weights":[-1.2641065E-1],"categories":[],"categories_nodes":[],"categories_segments":[],"categories_sizes":[],"default_left":[0],"id":13,"left_children":[-1],"loss_changes":[0E0],"parents":[2147483647],"right_children":[-1],"split_conditions":[-1.2641065E-2],"split_indices":[0],"split_type":[0],"sum_hessian":[3.5434E4],"tree_param":{"num_deleted":"0","num_feature":"21","num_nodes":"1","size_leaf_vector":"0"}},{"base_weights":[-1.1376994E-1],"categories":[],"categories_nodes":[],"categories_segments":[],"categories_sizes":[],"default_left":[0],"id":14,"left_children":[-1],"loss_changes":[0E0],"parents":[2147483647],"right_children":[-1],"split_conditions":[-1.1376995E-2],"split_indices":[0],"split_type":[0],"sum_hessian":[3.5434E4],"tree_param":{"num_deleted":"0","num_feature":"21","num_nodes":"1","size_leaf_vector":"0"}},{"base_weights":[-1.0239327E-1,-1.015682E-1,-1.0282174E-1,-1.0165498E-1,-5.7047084E-2,4.4745597E-1,-9.5125444E-2],"categories":[],"categories_nodes":[],"categories_segments":[],"categories_sizes":[],"default_left":[1,1,0,0,1,0,0],"id":15,"left_children":[1,3,-1,-1,5,-1,-1],"loss_changes":[2.105713E-3,4.1305542E-2,0E0,0E0,5.4204136E-1,0E0,0E0],"parents":[2147483647,0,0,1,1,4,4],"right_children":[2,4,-1,-1,6,-1,-1],"split_conditions":[-6.079228E-1,2.5550105E-2,-1.0282174E-2,-1.0165498E-2,2.556448E-2,4.4745598E-2,-9.512545E-3],"split_indices":[3,8,0,0,8,0,0],"split_type":[0,0,0,0,0,0,0],"sum_hessian":[3.5434E4,1.2193E4,2.3241E4,1.2168E4,2.5E1,1E0,2.4E1],"tree_param":{"num_deleted":"0","num_feature":"21","num_nodes":"7","size_leaf_vector":"0"}},{"base_weights":[-9.215353E-2,-9.139579E-2,-9.253408E-2,-9.147891E-2,-4.8161786E-2,-4.8870534E-2,-9.148912E-2,4.2508316E-1,-8.559212E-2],"categories":[],"categories_nodes":[],"categories_segments":[],"categories_sizes":[],"default_left":[1,1,0,1,1,0,0,0,0],"id":16,"left_children":[1,3,-1,5,7,-1,-1,-1,-1],"loss_changes":[1.7700195E-3,3.845215E-2,0E0,7.019043E-4,4.792267E-1,0E0,0E0,0E0,0E0],"parents":[2147483647,0,0,1,1,3,3,4,4],"right_children":[2,4,-1,6,8,-1,-1,-1,-1],"split_conditions":[-6.40952E-1,2.5550105E-2,-9.253408E-3,-1.4401338E0,2.556448E-2,-4.8870533E-3,-9.1489125E-3,4.2508315E-2,-8.559212E-3],"split_indices":[3,8,0,20,8,0,0,0,0],"split_type":[0,0,0,0,0,0,0,0,0],"sum_hessian":[3.5434E4,1.1927E4,2.3507E4,1.1903E4,2.4E1,4E0,1.1899E4,1E0,2.3E1],"tree_param":{"num_deleted":"0","num_feature":"21","num_nodes":"9","size_leaf_vector":"0"}},{"base_weights":[-8.2937874E-2,-8.227093E-2,-8.328974E-2,-8.234581E-2,-4.3694682E-2,-4.4960894E-2,-8.235432E-2,4.03829E-1,-7.774879E-2],"categories":[],"categories_nodes":[],"categories_segments":[],"categories_sizes":[],"default_left":[1,1,0,1,1,0,0,0,0],"id":17,"left_children":[1,3,-1,5,7,-1,-1,-1,-1],"loss_changes":[1.4801025E-3,3.199005E-2,0E0,2.0599365E-4,4.2763773E-1,0E0,0E0,0E0,0E0],"parents":[2147483647,0,0,1,1,3,3,4,4],"right_children":[2,4,-1,6,8,-1,-1,-1,-1],"split_conditions":[-5.91153E-1,2.5550105E-2,-8.328974E-3,-1.4401338E0,2.556448E-2,-4.4960896E-3,-8.235432E-3,4.0382903E-2,-7.774879E-3],"split_indices":[3,8,0,20,8,0,0,0,0],"split_type":[0,0,0,0,0,0,0,0,0],"sum_hessian":[3.5434E4,1.2319E4,2.3115E4,1.2294E4,2.5E1,4E0,1.229E4,1E0,2.4E1],"tree_param":{"num_deleted":"0","num_feature":"21","num_nodes":"9","size_leaf_vector":"0"}},{"base_weights":[-7.464376E-2,-7.378146E-2,-7.48836E-2],"categories":[],"categories_nodes":[],"categories_segments":[],"categories_sizes":[],"default_left":[1,0,0],"id":18,"left_children":[1,-1,-1],"loss_changes":[1.8157959E-3,0E0,0E0],"parents":[2147483647,0,0],"right_children":[2,-1,-1],"split_conditions":[-2.7906671E-2,-7.378146E-3,-7.48836E-3],"split_indices":[11,0,0],"split_type":[0,0,0],"sum_hessian":[3.5434E4,7.778E3,2.7656E4],"tree_param":{"num_deleted":"0","num_feature":"21","num_nodes":"3","size_leaf_vector":"0"}},{"base_weights":[-6.717981E-2,-6.6578254E-2,-6.748217E-2,-6.665103E-2,-2.9261239E-2,-3.5395373E-2,-6.6658564E-2,3.8738173E-1,-6.276227E-2],"categories":[],"categories_nodes":[],"categories_segments":[],"categories_sizes":[],"default_left":[1,1,0,1,1,0,0,0,0],"id":19,"left_children":[1,3,-1,5,7,-1,-1,-1,-1],"loss_changes":[1.953125E-3,3.0448914E-2,0E0,4.386902E-4,3.7326217E-1,0E0,0E0,0E0,0E0],"parents":[2147483647,0,0,1,1,3,3,4,4],"right_children":[2,4,-1,6,8,-1,-1,-1,-1],"split_conditions":[-6.40952E-1,2.5550105E-2,-6.7482176E-3,-1.4401338E0,2.556448E-2,-3.5395373E-3,-6.6658566E-3,3.8738173E-2,-6.276227E-3],"split_indices":[3,8,0,20,8,0,0,0,0],"split_type":[0,0,0,0,0,0,0,0,0],"sum_hessian":[3.5434E4,1.1927E4,2.3507E4,1.1903E4,2.4E1,4E0,1.1899E4,1E0,2.3E1],"tree_param":{"num_deleted":"0","num_feature":"21","num_nodes":"9","size_leaf_vector":"0"}},{"base_weights":[-6.0461387E-2,-5.97054E-2,-6.0672816E-2,-3.404085E-2,-6.0676403E-2,-3.6780115E-2,-1.0172259E-2,-6.0723454E-2,-5.7759583E-2],"categories":[],"categories_nodes":[],"categories_segments":[],"categories_sizes":[],"default_left":[1,0,1,1,1,0,0,0,0],"id":20,"left_children":[1,-1,3,5,7,-1,-1,-1,-1],"loss_changes":[2.0446777E-3,0E0,5.722046E-4,1.8157065E-5,2.746582E-4,0E0,0E0,0E0,0E0],"parents":[2147483647,0,0,2,2,3,3,4,4],"right_children":[2,-1,4,6,8,-1,-1,-1,-1],"split_conditions":[-2.7853802E-2,-5.97054E-3,-1.4816389E0,8.9060694E-2,2.5269276E-2,-3.6780115E-3,-1.0172259E-3,-6.0723457E-3,-5.7759583E-3],"split_indices":[11,0,20,1,8,0,0,0,0],"split_type":[0,0,0,0,0,0,0,0,0],"sum_hessian":[3.5434E4,7.806E3,2.7628E4,5E0,2.7623E4,4E0,1E0,2.7165E4,4.58E2],"tree_param":{"num_deleted":"0","num_feature":"21","num_nodes":"9","size_leaf_vector":"0"}},{"base_weights":[-5.441588E-2,-5.4449044E-2,-5.0073333E-2,-5.3952973E-2,-5.47086E-2,3.004213E-3,-5.1242314E-2,-5.4019205E-2,-2.0995239E-2,1.3790007E-1,-4.2461775E-2,-1.9168083E-2,-5.1407076E-2],"categories":[],"categories_nodes":[],"categories_segments":[],"categories_sizes":[],"default_left":[1,1,1,1,0,1,1,0,0,0,0,0,0],"id":21,"left_children":[1,3,5,7,-1,9,11,-1,-1,-1,-1,-1,-1],"loss_changes":[2.3651123E-3,1.5792847E-3,1.7589033E-2,2.537918E-2,0E0,4.8787694E-2,4.6795607E-4,0E0,0E0,0E0,0E0,0E0,0E0],"parents":[2147483647,0,0,1,1,2,2,3,3,5,5,6,6],"right_children":[2,4,6,8,-1,10,12,-1,-1,-1,-1,-1,-1],"split_conditions":[9.994695E-1,-5.91153E-1,1.0164783E0,2.5550105E-2,-5.4708603E-3,-6.6571444E-1,-1.0596733E0,-5.4019205E-3,-2.099524E-3,1.3790007E-2,-4.2461776E-3,-1.9168083E-3,-5.140708E-3],"split_indices":[7,3,7,8,0,0,6,0,0,0,0,0,0],"split_type":[0,0,0,0,0,0,0,0,0,0,0,0,0],"sum_hessian":[3.5434E4,3.5154E4,2.8E2,1.2147E4,2.3007E4,6E0,2.74E2,1.2122E4,2.5E1,1E0,5E0,2E0,2.72E2],"tree_param":{"num_deleted":"0","num_feature":"21","num_nodes":"13","size_leaf_vector":"0"}},{"base_weights":[-4.897459E-2,-4.9110867E-2,-4.804416E-2,-4.848454E-2,-4.9271554E-2,-2.8253526E-3,-4.822223E-2,-4.4310138E-2,3.719504E-1,-9.320714E-3,-4.824582E-2],"categories":[],"categories_nodes":[],"categories_segments":[],"categories_sizes":[],"default_left":[1,1,1,0,0,1,1,0,0,0,0],"id":22,"left_children":[1,3,5,-1,-1,7,9,-1,-1,-1,-1],"loss_changes":[2.1362305E-3,7.171631E-4,3.6685944E-2,0E0,0E0,3.118835E-1,3.730774E-3,0E0,0E0,0E0,0E0],"parents":[2147483647,0,0,1,1,2,2,5,5,6,6],"right_children":[2,4,6,-1,-1,8,10,-1,-1,-1,-1],"split_conditions":[7.409856E-2,-2.7853802E-2,7.4834876E-2,-4.848454E-3,-4.9271556E-3,7.473554E-2,-1.3738378E0,-4.431014E-3,3.7195038E-2,-9.3207136E-4,-4.824582E-3],"split_indices":[7,11,7,0,0,7,6,0,0,0,0],"split_type":[0,0,0,0,0,0,0,0,0,0,0],"sum_hessian":[3.5434E4,3.0862E4,4.572E3,6.363E3,2.4499E4,1.8E1,4.554E3,1.7E1,1E0,3E0,4.551E3],"tree_param":{"num_deleted":"0","num_feature":"21","num_nodes":"11","size_leaf_vector":"0"}},{"base_weights":[-4.4076644E-2,-4.410578E-2,-4.021969E-2,-4.3673936E-2,-4.4328306E-2,7.558015E-2,-4.1336708E-2,-4.37305E-2,-1.589046E-2,1.3341735E-1,-2.0047124E-2,-4.2066358E-2,-3.0508287E-2],"categories":[],"categories_nodes":[],"categories_segments":[],"categories_sizes":[],"default_left":[1,1,1,1,0,1,1,0,0,0,0,0,0],"id":23,"left_children":[1,3,5,7,-1,9,11,-1,-1,-1,-1,-1,-1],"loss_changes":[2.204895E-3,1.449585E-3,3.8954318E-2,1.819992E-2,0E0,1.9267077E-2,8.893907E-4,0E0,0E0,0E0,0E0,0E0,0E0],"parents":[2147483647,0,0,1,1,2,2,3,3,5,5,6,6],"right_children":[2,4,6,8,-1,10,12,-1,-1,-1,-1,-1,-1],"split_conditions":[1.0114119E0,-6.081648E-1,1.0164783E0,2.5550105E-2,-4.4328305E-3,-2.9826E-1,9.881031E-3,-4.3730503E-3,-1.5890461E-3,1.3341735E-2,-2.0047126E-3,-4.206636E-3,-3.0508288E-3],"split_indices":[7,3,7,8,0,0,9,0,0,0,0,0,0],"split_type":[0,0,0,0,0,0,0,0,0,0,0,0,0],"sum_hessian":[3.5434E4,3.5158E4,2.76E2,1.2023E4,2.3135E4,2E0,2.74E2,1.1998E4,2.5E1,1E0,1E0,2.54E2,2E1],"tree_param":{"num_deleted":"0","num_feature":"21","num_nodes":"13","size_leaf_vector":"0"}},{"base_weights":[-3.966916E-2,-3.9064422E-2,-3.983199E-2,-3.7704196E-2,-3.9256766E-2,-1.9233497E-2,-3.9835732E-2,-3.8063046E-2,-1.6750121E-2,-3.9275877E-2,-2.7453102E-2,-2.3550063E-2,-5.6280554E-3,-3.9871145E-2,-3.764451E-2],"categories":[],"categories_nodes":[],"categories_segments":[],"categories_sizes":[],"default_left":[1,1,1,1,1,1,1,0,0,0,0,0,0,0,0],"id":24,"left_children":[1,3,5,7,9,11,13,-1,-1,-1,-1,-1,-1,-1,-1],"loss_changes":[1.9340515E-3,5.016327E-4,1.3847351E-3,6.6034794E-3,4.119873E-4,2.785602E-4,6.599426E-4,0E0,0E0,0E0,0E0,0E0,0E0,0E0,0E0],"parents":[2147483647,0,0,1,1,2,2,3,3,4,4,5,5,6,6],"right_children":[2,4,6,8,10,12,14,-1,-1,-1,-1,-1,-1,-1,-1],"split_conditions":[-2.835976E-2,-2.4780542E-1,-1.4816389E0,9.882625E-1,-2.8407183E-2,3.8188897E-2,2.5269276E-2,-3.8063047E-3,-1.6750122E-3,-3.927588E-3,-2.7453103E-3,-2.3550063E-3,-5.6280557E-4,-3.9871144E-3,-3.764451E-3],"split_indices":[11,17,20,7,11,1,8,0,0,0,0,0,0,0,0],"split_type":[0,0,0,0,0,0,0,0,0,0,0,0,0,0,0],"sum_hessian":[3.5434E4,7.568E3,2.7866E4,9.62E2,6.606E3,6E0,2.786E4,9.45E2,1.7E1,6.593E3,1.3E1,4E0,2E0,2.74E4,4.6E2],"tree_param":{"num_deleted":"0","num_feature":"21","num_nodes":"15","size_leaf_vector":"0"}},{"base_weights":[-3.5702884E-2,-3.585215E-2,-3.5069402E-2,-3.525768E-2,-3.5966236E-2,-3.5181664E-2,-2.9350316E-2,-3.5299342E-2,-2.71036E-2,-1.8732108E-2,-3.596905E-2,2.5911382E-4,-3.5192337E-2,3.5602963E-1,-3.480186E-2],"categories":[],"categories_nodes":[],"categories_segments":[],"categories_sizes":[],"default_left":[1,1,1,1,1,1,1,0,0,0,0,0,0,0,0],"id":25,"left_children":[1,3,5,7,9,11,13,-1,-1,-1,-1,-1,-1,-1,-1],"loss_changes":[2.0980835E-3,6.752014E-4,3.334999E-3,6.260872E-4,4.8828125E-4,2.530098E-3,3.0021578E-1,0E0,0E0,0E0,0E0,0E0,0E0,0E0,0E0],"parents":[2147483647,0,0,1,1,2,2,3,3,4,4,5,5,6,6],"right_children":[2,4,6,8,10,12,14,-1,-1,-1,-1,-1,-1,-1,-1],"split_conditions":[1.9752093E-2,-3.2240707E-2,2.5556706E-2,2.8840919E0,-1.4909612E0,-2.5629005E0,2.5563883E-2,-3.5299342E-3,-2.7103599E-3,-1.8732109E-3,-3.596905E-3,2.5911382E-5,-3.5192338E-3,3.5602964E-2,-3.480186E-3],"split_indices":[7,11,8,13,20,5,8,0,0,0,0,0,0,0,0],"split_type":[0,0,0,0,0,0,0,0,0,0,0,0,0,0,0],"sum_hessian":[3.5434E4,2.8632E4,6.802E3,4.66E3,2.3972E4,6.666E3,1.36E2,4.633E3,2.7E1,5E0,2.3967E4,2E0,6.664E3,1E0,1.35E2],"tree_param":{"num_deleted":"0","num_feature":"21","num_nodes":"15","size_leaf_vector":"0"}},{"base_weights":[-3.213212E-2,-3.2156695E-2,-2.8885098E-2,-3.1862225E-2,-3.2399505E-2,1.2934361E-1,-2.9930817E-2,-3.190129E-2,-1.7966349E-2,-3.0592792E-2,-2.046727E-2],"categories":[],"categories_nodes":[],"categories_segments":[],"categories_sizes":[],"default_left":[1,1,1,1,0,0,1,0,0,0,0],"id":26,"left_children":[1,3,5,7,-1,-1,9,-1,-1,-1,-1],"loss_changes":[1.8997192E-3,1.4801025E-3,4.9539E-2,8.0833435E-3,0E0,0E0,1.0966212E-3,0E0,0E0,0E0,0E0],"parents":[2147483647,0,0,1,1,2,2,3,3,6,6],"right_children":[2,4,6,8,-1,-1,10,-1,-1,-1,-1],"split_conditions":[1.0133305E0,-3.3091378E-1,1.0164783E0,2.5550105E-2,-3.2399506E-3,1.2934362E-2,9.881031E-3,-3.1901288E-3,-1.7966349E-3,-3.0592792E-3,-2.046727E-3],"split_indices":[7,3,7,8,0,0,9,0,0,0,0],"split_type":[0,0,0,0,0,0,0,0,0,0,0],"sum_hessian":[3.5434E4,3.5159E4,2.75E2,1.5949E4,1.921E4,1E0,2.74E2,1.5903E4,4.6E1,2.54E2,2E1],"tree_param":{"num_deleted":"0","num_feature":"21","num_nodes":"11","size_leaf_vector":"0"}},{"base_weights":[-2.8918918E-2,-2.9021956E-2,-2.8217189E-2,-2.8364843E-2,-2.9105702E-2,1.119887E-2,-2.8375408E-2,-2.8446788E-2,-2.3974217E-2,-2.8855015E-2,-2.9295128E-2,-2.585969E-2,3.3912647E-1,8.329479E-4,-2.839484E-2],"categories":[],"categories_nodes":[],"categories_segments":[],"categories_sizes":[],"default_left":[1,1,1,1,1,1,1,0,0,0,0,0,0,0,0],"id":27,"left_children":[1,3,5,7,9,11,13,-1,-1,-1,-1,-1,-1,-1,-1],"loss_changes":[1.7433167E-3,8.716583E-4,2.8836966E-2,5.874634E-4,4.5394897E-4,2.3966767E-1,2.609253E-3,0E0,0E0,0E0,0E0,0E0,0E0,0E0,0E0],"parents":[2147483647,0,0,1,1,2,2,3,3,4,4,5,5,6,6],"right_children":[2,4,6,8,10,12,14,-1,-1,-1,-1,-1,-1,-1,-1],"split_conditions":[7.409856E-2,-4.0907413E-2,7.4834876E-2,1.9926561E0,-6.107124E-2,7.473554E-2,-1.3738378E0,-2.844679E-3,-2.3974217E-3,-2.8855016E-3,-2.9295129E-3,-2.585969E-3,3.3912648E-2,8.329479E-5,-2.839484E-3],"split_indices":[7,11,7,14,10,7,6,0,0,0,0,0,0,0,0],"split_type":[0,0,0,0,0,0,0,0,0,0,0,0,0,0,0],"sum_hessian":[3.5434E4,3.0862E4,4.572E3,3.527E3,2.7335E4,1.8E1,4.554E3,3.457E3,7E1,1.1831E4,1.5504E4,1.7E1,1E0,3E0,4.551E3],"tree_param":{"num_deleted":"0","num_feature":"21","num_nodes":"15","size_leaf_vector":"0"}},{"base_weights":[-2.6026532E-2,-2.6048679E-2,-2.316317E-2,-2.6266957E-2,-2.57815E-2,1.8016303E-2,-2.4127144E-2,-1.4821684E-2,-2.6270341E-2,-2.5813691E-2,-2.065607E-2,1.2429617E-1,-2.0413037E-2,-2.535664E-2,-1.8866142E-2],"categories":[],"categories_nodes":[],"categories_segments":[],"categories_sizes":[],"default_left":[1,1,1,1,1,1,1,0,0,0,0,0,0,0,0],"id":28,"left_children":[1,3,5,7,9,11,13,-1,-1,-1,-1,-1,-1,-1,-1],"loss_changes":[1.6460419E-3,1.373291E-3,1.1589244E-2,3.5858154E-4,2.084732E-3,3.1127121E-2,1.3004243E-3,0E0,0E0,0E0,0E0,0E0,0E0,0E0,0E0],"parents":[2147483647,0,0,1,1,2,2,3,3,4,4,5,5,6,6],"right_children":[2,4,6,8,10,12,14,-1,-1,-1,-1,-1,-1,-1,-1],"split_conditions":[9.994695E-1,-2.1101218E-1,1.0164783E0,-1.4613793E0,2.5558624E-2,-6.6571444E-1,1.1022729E0,-1.4821684E-3,-2.6270342E-3,-2.5813691E-3,-2.065607E-3,1.2429617E-2,-2.0413038E-3,-2.535664E-3,-1.8866142E-3],"split_indices":[7,15,7,20,8,0,19,0,0,0,0,0,0,0,0],"split_type":[0,0,0,0,0,0,0,0,0,0,0,0,0,0,0],"sum_hessian":[3.5434E4,3.5154E4,2.8E2,1.9294E4,1.586E4,6E0,2.74E2,7E0,1.9287E4,1.5757E4,1.03E2,1E0,5E0,2.19E2,5.5E1],"tree_param":{"num_deleted":"0","num_feature":"21","num_nodes":"15","size_leaf_vector":"0"}},{"base_weights":[-2.3423957E-2,-2.3540968E-2,-2.2927944E-2,-2.325449E-2,-2.36868E-2,-2.3021387E-2,-1.8213915E-2,-2.277837E-2,-2.3564676E-2,-2.3846712E-2,-2.3306971E-2,-1.4329571E-3,-2.3034133E-2,3.2320294E-1,-2.3100825E-2],"categories":[],"categories_nodes":[],"categories_segments":[],"categories_sizes":[],"default_left":[1,1,1,1,1,1,1,0,0,0,0,0,0,0,0],"id":29,"left_children":[1,3,5,7,9,11,13,-1,-1,-1,-1,-1,-1,-1,-1],"loss_changes":[1.5163422E-3,6.456375E-4,2.576828E-3,8.9788437E-4,5.931854E-4,1.8012524E-3,2.3604715E-1,0E0,0E0,0E0,0E0,0E0,0E0,0E0,0E0],"parents":[2147483647,0,0,1,1,2,2,3,3,4,4,5,5,6,6],"right_children":[2,4,6,8,10,12,14,-1,-1,-1,-1,-1,-1,-1,-1],"split_conditions":[1.9770436E-2,-2.5836548E-1,2.5556706E-2,-2.8166336E-1,-7.441366E-2,-1.3738378E0,2.5563883E-2,-2.277837E-3,-2.3564675E-3,-2.3846712E-3,-2.3306971E-3,-1.4329572E-4,-2.3034133E-3,3.2320295E-2,-2.3100825E-3],"split_indices":[7,6,8,3,2,6,8,0,0,0,0,0,0,0,0],"split_type":[0,0,0,0,0,0,0,0,0,0,0,0,0,0,0],"sum_hessian":[3.5434E4,2.8633E4,6.801E3,9.713E3,1.892E4,6.665E3,1.36E2,3.861E3,5.852E3,1.3271E4,5.649E3,4E0,6.661E3,1E0,1.35E2],"tree_param":{"num_deleted":"0","num_feature":"21","num_nodes":"15","size_leaf_vector":"0"}},{"base_weights":[-2.1081047E-2,-2.0809837E-2,-2.1289626E-2,-2.0306401E-2,-2.1191832E-2,1.1696891E-2,-2.1291861E-2,-2.037875E-2,-9.415219E-3,-2.1256395E-2,-1.8636355E-2,-2.0460287E-2,-2.138186E-2],"categories":[],"categories_nodes":[],"categories_segments":[],"categories_sizes":[],"default_left":[1,1,1,1,1,0,1,0,0,0,0,0,0],"id":30,"left_children":[1,3,5,7,9,-1,11,-1,-1,-1,-1,-1,-1],"loss_changes":[1.5630722E-3,2.5405884E-3,1.7223358E-3,5.0787926E-3,1.0492802E-3,0E0,1.0585785E-3,0E0,0E0,0E0,0E0,0E0,0E0],"parents":[2147483647,0,0,1,1,2,2,3,3,4,4,6,6],"right_children":[2,4,6,8,10,-1,12,-1,-1,-1,-1,-1,-1],"split_conditions":[-6.1613522E-2,-1.5001458E-1,-2.7429466E0,2.5550105E-2,4.3503928E-1,1.1696891E-3,-4.86542E-2,-2.0378751E-3,-9.415219E-4,-2.1256395E-3,-1.8636355E-3,-2.0460289E-3,-2.138186E-3],"split_indices":[10,3,5,8,7,0,11,0,0,0,0,0,0],"split_type":[0,0,0,0,0,0,0,0,0,0,0,0,0],"sum_hessian":[3.5434E4,1.5448E4,1.9986E4,6.688E3,8.76E3,1E0,1.9985E4,6.643E3,4.5E1,8.537E3,2.23E2,1.974E3,1.8011E4],"tree_param":{"num_deleted":"0","num_feature":"21","num_nodes":"13","size_leaf_vector":"0"}},{"base_weights":[-1.8973224E-2,-1.8992282E-2,-1.6476627E-2,-1.8687684E-2,-1.9134725E-2,1.2025201E-1,-1.7411102E-2,-1.7960018E-2,-1.9119214E-2,1.1112046E-2,-1.9136455E-2,-1.8609162E-2,-1.2903004E-2],"categories":[],"categories_nodes":[],"categories_segments":[],"categories_sizes":[],"default_left":[1,1,1,1,1,0,1,0,0,0,0,0,0],"id":31,"left_children":[1,3,5,7,9,-1,11,-1,-1,-1,-1,-1,-1],"loss_changes":[1.373291E-3,1.168251E-3,3.7358105E-2,3.1876564E-3,1.4638901E-3,0E0,1.2451559E-3,0E0,0E0,0E0,0E0,0E0,0E0],"parents":[2147483647,0,0,1,1,2,2,3,3,4,4,6,6],"right_children":[2,4,6,8,10,-1,12,-1,-1,-1,-1,-1,-1],"split_conditions":[1.0133305E0,-7.271457E-2,1.0164783E0,-1.4993748E-1,-2.7429466E0,1.2025202E-2,8.4219766E-1,-1.7960018E-3,-1.9119214E-3,1.1112046E-3,-1.9136455E-3,-1.8609163E-3,-1.2903004E-3],"split_indices":[7,10,7,3,5,0,0,0,0,0,0,0,0],"split_type":[0,0,0,0,0,0,0,0,0,0,0,0,0],"sum_hessian":[3.5434E4,3.5159E4,2.75E2,1.1245E4,2.3914E4,1E0,2.74E2,4.202E3,7.043E3,1E0,2.3913E4,2.14E2,6E1],"tree_param":{"num_deleted":"0","num_feature":"21","num_nodes":"13","size_leaf_vector":"0"}},{"base_weights":[-1.7075777E-2,-1.7195493E-2,-1.67215E-2,-1.7282983E-2,-1.6786939E-2,-1.6786555E-2,-1.3269752E-2,-1.7333927E-2,-1.6347608E-2,4.8565185E-3,-1.6801797E-2,-1.4860373E-2,-1.6903529E-2,3.0841154E-1,-1.6976181E-2],"categories":[],"categories_nodes":[],"categories_segments":[],"categories_sizes":[],"default_left":[1,1,1,1,1,1,1,0,0,0,0,0,0,0,0],"id":32,"left_children":[1,3,5,7,9,11,13,-1,-1,-1,-1,-1,-1,-1,-1],"loss_changes":[1.2159348E-3,6.5517426E-4,1.7950535E-3,7.534027E-4,1.5929937E-3,1.7352104E-3,2.0911703E-1,0E0,0E0,0E0,0E0,0E0,0E0,0E0,0E0],"parents":[2147483647,0,0,1,1,2,2,3,3,4,4,5,5,6,6],"right_children":[2,4,6,8,10,12,14,-1,-1,-1,-1,-1,-1,-1,-1],"split_conditions":[-1.1092834E-2,2.5953125E-2,2.5556706E-2,-7.931952E-4,-1.3548265E0,-2.4790102E-1,2.5563883E-2,-1.7333927E-3,-1.6347608E-3,4.8565186E-4,-1.6801797E-3,-1.4860373E-3,-1.6903529E-3,3.0841155E-2,-1.6976182E-3],"split_indices":[7,17,8,18,20,17,8,0,0,0,0,0,0,0,0],"split_type":[0,0,0,0,0,0,0,0,0,0,0,0,0,0,0],"sum_hessian":[3.5434E4,2.6449E4,8.985E3,2.175E4,4.699E3,8.815E3,1.7E2,2.061E4,1.14E3,3E0,4.696E3,5.12E2,8.303E3,1E0,1.69E2],"tree_param":{"num_deleted":"0","num_feature":"21","num_nodes":"15","size_leaf_vector":"0"}},{"base_weights":[-1.5367596E-2,-1.5060554E-2,-1.5499259E-2,-1.5072413E-2,5.5733137E-2,-1.5684383E-2,-1.519679E-2,-6.484924E-3,-1.5083895E-2,-2.934843E-3,-1.568835E-2,-1.5255598E-2,-8.129229E-3],"categories":[],"categories_nodes":[],"categories_segments":[],"categories_sizes":[],"default_left":[1,1,1,1,0,1,1,0,0,0,0,0,0],"id":33,"left_children":[1,3,5,7,-1,9,11,-1,-1,-1,-1,-1,-1],"loss_changes":[1.1997223E-3,9.798288E-3,1.1482239E-3,9.5415115E-4,0E0,7.2956085E-4,3.7972927E-3,0E0,0E0,0E0,0E0,0E0,0E0],"parents":[2147483647,0,0,1,1,2,2,3,3,5,5,6,6],"right_children":[2,4,6,8,-1,10,12,-1,-1,-1,-1,-1,-1],"split_conditions":[4.1215727E-3,4.1213543E-3,2.4965481E-1,-1.1776927E0,5.5733137E-3,-1.2299654E0,2.5368012E-2,-6.484924E-4,-1.5083895E-3,-2.934843E-4,-1.5688351E-3,-1.5255598E-3,-8.129229E-4],"split_indices":[9,9,16,15,0,6,8,0,0,0,0,0,0],"split_type":[0,0,0,0,0,0,0,0,0,0,0,0,0],"sum_hessian":[3.5434E4,1.0669E4,2.4765E4,1.0668E4,1E0,1.5331E4,9.434E3,1.5E1,1.0653E4,5E0,1.5326E4,9.355E3,7.9E1],"tree_param":{"num_deleted":"0","num_feature":"21","num_nodes":"13","size_leaf_vector":"0"}},{"base_weights":[-1.3830858E-2,-1.3847837E-2,-1.161779E-2,-1.3670989E-2,-1.4053594E-2,1.15736626E-1,-1.2501757E-2,-1.2359652E-2,-1.3825295E-2,-1.4076152E-2,-1.2284281E-2,-1.3595714E-2,-7.980823E-3],"categories":[],"categories_nodes":[],"categories_segments":[],"categories_sizes":[],"default_left":[1,1,1,1,1,0,1,0,0,0,0,0,0],"id":34,"left_children":[1,3,5,7,9,-1,11,-1,-1,-1,-1,-1,-1],"loss_changes":[1.1706352E-3,1.0871887E-3,3.251821E-2,3.6623478E-3,4.7445297E-4,0E0,1.2515634E-3,0E0,0E0,0E0,0E0,0E0,0E0],"parents":[2147483647,0,0,1,1,2,2,3,3,4,4,6,6],"right_children":[2,4,6,8,10,-1,12,-1,-1,-1,-1,-1,-1],"split_conditions":[1.0133305E0,-1.6452646E-1,1.0164783E0,-8.29175E-2,4.3503928E-1,1.1573663E-2,1.1022729E0,-1.2359652E-3,-1.3825295E-3,-1.4076153E-3,-1.2284281E-3,-1.3595715E-3,-7.9808227E-4],"split_indices":[7,3,7,10,7,0,19,0,0,0,0,0,0],"split_type":[0,0,0,0,0,0,0,0,0,0,0,0,0],"sum_hessian":[3.5434E4,3.5159E4,2.75E2,1.8944E4,1.6215E4,1E0,2.74E2,2.003E3,1.6941E4,1.6004E4,2.11E2,2.19E2,5.5E1],"tree_param":{"num_deleted":"0","num_feature":"21","num_nodes":"13","size_leaf_vector":"0"}},{"base_weights":[-1.2447655E-2,-1.2009763E-2,-1.2529323E-2,-1.2075656E-2,-5.2777715E-3,-1.2601289E-2,-1.1932905E-2,-1.2108053E-2,-5.7230033E-3,1.099498E-1,-9.371906E-3,-1.227035E-2,-1.2735045E-2,1.1754727E-2,-1.1958553E-2],"categories":[],"categories_nodes":[],"categories_segments":[],"categories_sizes":[],"default_left":[1,1,1,1,1,1,1,0,0,0,0,0,0,0,0],"id":35,"left_children":[1,3,5,7,9,11,13,-1,-1,-1,-1,-1,-1,-1,-1],"loss_changes":[1.1167526E-3,2.4176836E-3,1.1305809E-3,1.0706186E-3,2.7448839E-2,1.0213852E-3,2.1041632E-3,0E0,0E0,0E0,0E0,0E0,0E0,0E0,0E0],"parents":[2147483647,0,0,1,1,2,2,3,3,4,4,5,5,6,6],"right_children":[2,4,6,8,10,12,14,-1,-1,-1,-1,-1,-1,-1,-1],"split_conditions":[-4.7888887E-1,1.0027831E0,2.1956885E-1,1.9907384E0,1.0321229E0,4.125094E-3,-1.3548265E0,-1.2108054E-3,-5.7230034E-4,1.099498E-2,-9.3719055E-4,-1.2270351E-3,-1.2735045E-3,1.1754727E-3,-1.1958553E-3],"split_indices":[6,7,2,14,7,9,20,0,0,0,0,0,0,0,0],"split_type":[0,0,0,0,0,0,0,0,0,0,0,0,0,0,0],"sum_hessian":[3.5434E4,5.593E3,2.9841E4,5.538E3,5.5E1,2.661E4,3.231E3,5.509E3,2.9E1,1E0,5.4E1,7.686E3,1.8924E4,3E0,3.228E3],"tree_param":{"num_deleted":"0","num_feature":"21","num_nodes":"15","size_leaf_vector":"0"}},{"base_weights":[-1.1202727E-2,-1.447144E-2,-1.1192232E-2,2.9356869E-2,-1.1194211E-2,-1.1237093E-2,-1.0265077E-2],"categories":[],"categories_nodes":[],"categories_segments":[],"categories_sizes":[],"default_left":[1,0,1,0,1,0,0],"id":36,"left_children":[1,-1,3,-1,5,-1,-1],"loss_changes":[1.0538101E-3,0E0,3.1633377E-3,0E0,1.2922287E-3,0E0,0E0],"parents":[2147483647,0,0,2,2,4,4],"right_children":[2,-1,4,-1,6,-1,-1],"split_conditions":[-2.527943E-1,-1.447144E-3,-2.5279126E-1,2.9356868E-3,-3.2650717E-3,-1.1237094E-3,-1.0265078E-3],"split_indices":[2,0,2,0,18,0,0],"split_type":[0,0,0,0,0,0,0],"sum_hessian":[3.5434E4,1.09E2,3.5325E4,1E0,3.5324E4,3.3755E4,1.569E3],"tree_param":{"num_deleted":"0","num_feature":"21","num_nodes":"7","size_leaf_vector":"0"}},{"base_weights":[-1.0082473E-2,-9.90188E-3,-1.0251487E-2,-9.587179E-3,-1.0189019E-2,1.3937941E-2,-1.0253574E-2,-9.635718E-3,-7.693535E-4,-1.0243259E-2,-7.967693E-3,-9.531516E-3,-1.0333296E-2],"categories":[],"categories_nodes":[],"categories_segments":[],"categories_sizes":[],"default_left":[1,1,1,1,1,0,1,0,0,0,0,0,0],"id":37,"left_children":[1,3,5,7,9,-1,11,-1,-1,-1,-1,-1,-1],"loss_changes":[9.799004E-4,1.4529228E-3,1.0653734E-3,3.5040975E-3,9.976029E-4,0E0,9.534359E-4,0E0,0E0,0E0,0E0,0E0,0E0],"parents":[2147483647,0,0,1,1,2,2,3,3,4,4,6,6],"right_children":[2,4,6,8,10,-1,12,-1,-1,-1,-1,-1,-1],"split_conditions":[-5.6525446E-2,-9.126328E-2,-2.7429466E0,2.5550105E-2,4.3503928E-1,1.3937941E-3,-4.86542E-2,-9.635718E-4,-7.693535E-5,-1.024326E-3,-7.967693E-4,-9.5315155E-4,-1.0333296E-3],"split_indices":[10,3,5,8,7,0,11,0,0,0,0,0,0],"split_type":[0,0,0,0,0,0,0,0,0,0,0,0,0],"sum_hessian":[3.5434E4,1.7159E4,1.8275E4,8.203E3,8.956E3,1E0,1.8274E4,8.158E3,4.5E1,8.739E3,2.17E2,1.829E3,1.6445E4],"tree_param":{"num_deleted":"0","num_feature":"21","num_nodes":"13","size_leaf_vector":"0"}},{"base_weights":[-9.074324E-3,-1.145378E-2,-9.061375E-3,7.6625105E-3,-1.18051935E-2,1.0461141E-3,-9.066569E-3,-8.697194E-3,2.8370813E-2,-1.1918265E-2,4.5000687E-3,-8.725478E-3,1.5572738E-2,-8.063942E-3,-9.101718E-3],"categories":[],"categories_nodes":[],"categories_segments":[],"categories_sizes":[],"default_left":[1,1,1,1,1,1,1,0,0,0,0,0,0,0,0],"id":38,"left_children":[1,3,5,7,9,11,13,-1,-1,-1,-1,-1,-1,-1,-1],"loss_changes":[9.880066E-4,1.3533887E-3,1.8596649E-3,1.6018733E-3,3.9471313E-4,2.8328963E-3,1.168251E-3,0E0,0E0,0E0,0E0,0E0,0E0,0E0,0E0],"parents":[2147483647,0,0,1,1,2,2,3,3,4,4,5,5,6,6],"right_children":[2,4,6,8,10,12,14,-1,-1,-1,-1,-1,-1,-1,-1],"split_conditions":[-2.525397E-1,-1.3717923E0,-2.55936E-1,1.4867736E0,1.145644E0,-2.5600117E-1,-2.4710907E-1,-8.697194E-4,2.8370812E-3,-1.1918265E-3,4.500069E-4,-8.7254785E-4,1.5572738E-3,-8.063942E-4,-9.101718E-4],"split_indices":[2,6,17,0,7,17,2,0,0,0,0,0,0,0,0],"split_type":[0,0,0,0,0,0,0,0,0,0,0,0,0,0,0],"sum_hessian":[3.5434E4,1.87E2,3.5247E4,3E0,1.84E2,1.8E1,3.5229E4,2E0,1E0,1.83E2,1E0,1.1E1,7E0,1.201E3,3.4028E4],"tree_param":{"num_deleted":"0","num_feature":"21","num_nodes":"15","size_leaf_vector":"0"}},{"base_weights":[-8.166885E-3,-8.338973E-3,-8.0015175E-3,-8.341953E-3,6.665969E-3,-7.5479196E-3,-8.174089E-3,-8.388482E-3,-7.44617E-3,2.2707371E-2,-6.250289E-3,-7.663953E-3,5.6958473E-3,1.3696129E-2,-8.1768045E-3],"categories":[],"categories_nodes":[],"categories_segments":[],"categories_sizes":[],"default_left":[1,1,1,1,1,1,1,0,0,0,0,0,0,0,0],"id":39,"left_children":[1,3,5,7,9,11,13,-1,-1,-1,-1,-1,-1,-1,-1],"loss_changes":[9.417534E-4,8.312464E-4,1.3546944E-3,6.6006184E-4,9.7070716E-4,7.7272356E-3,8.8989735E-4,0E0,0E0,0E0,0E0,0E0,0E0,0E0,0E0],"parents":[2147483647,0,0,1,1,2,2,3,3,4,4,5,5,6,6],"right_children":[2,4,6,8,10,12,14,-1,-1,-1,-1,-1,-1,-1,-1],"split_conditions":[-3.1173795E-1,2.3703408E0,-7.310551E-2,1.5771525E0,-1.5279168E-1,1.1774026E-2,-2.7429466E0,-8.3884824E-4,-7.44617E-4,2.2707372E-3,-6.250289E-4,-7.663953E-4,5.695847E-4,1.369613E-3,-8.1768044E-4],"split_indices":[15,6,10,3,0,9,5,0,0,0,0,0,0,0,0],"split_type":[0,0,0,0,0,0,0,0,0,0,0,0,0,0,0],"sum_hessian":[3.5434E4,1.734E4,1.8094E4,1.7337E4,3E0,4.999E3,1.3095E4,1.6473E4,8.64E2,1E0,2E0,4.956E3,4.3E1,1E0,1.3094E4],"tree_param":{"num_deleted":"0","num_feature":"21","num_nodes":"15","size_leaf_vector":"0"}},{"base_weights":[-7.350185E-3,-7.4812085E-3,-7.139827E-3,1.3011323E-2,-7.4827448E-3,-7.1849236E-3,-4.307662E-3,-7.2301785E-3,-7.6109394E-3,-6.9193305E-3,-7.4936496E-3,6.8382576E-2,-7.0694527E-3],"categories":[],"categories_nodes":[],"categories_segments":[],"categories_sizes":[],"default_left":[1,1,1,0,1,1,1,0,0,0,0,0,0],"id":40,"left_children":[1,3,5,-1,7,9,11,-1,-1,-1,-1,-1,-1],"loss_changes":[9.2327595E-4,7.839203E-4,1.7088652E-3,0E0,6.5124035E-4,1.047492E-3,4.3846555E-2,0E0,0E0,0E0,0E0,0E0,0E0],"parents":[2147483647,0,0,1,1,2,2,4,4,5,5,6,6],"right_children":[2,4,6,-1,8,10,12,-1,-1,-1,-1,-1,-1],"split_conditions":[2.7101552E-1,-2.7020466E0,2.4841014E-2,1.3011324E-3,-2.5299847E-1,1.1547527E-1,-1.1988477E0,-7.2301785E-4,-7.61094E-4,-6.9193303E-4,-7.4936496E-4,6.838258E-3,-7.0694525E-4],"split_indices":[16,5,8,0,6,13,0,0,0,0,0,0,0],"split_type":[0,0,0,0,0,0,0,0,0,0,0,0,0],"sum_hessian":[3.5434E4,2.1813E4,1.3621E4,1E0,2.1812E4,1.3406E4,2.15E2,7.363E3,1.4449E4,7.219E3,6.187E3,7E0,2.08E2],"tree_param":{"num_deleted":"0","num_feature":"21","num_nodes":"13","size_leaf_vector":"0"}},{"base_weights":[-6.61504E-3,-6.677061E-3,-6.1801285E-3,-6.286289E-3,-6.7551956E-3,1.4286587E-2,-6.197202E-3,-6.3505885E-3,-2.8946376E-4,-6.4069526E-3,-6.8440367E-3,-5.618015E-3,-6.5836837E-3],"categories":[],"categories_nodes":[],"categories_segments":[],"categories_sizes":[],"default_left":[1,1,1,1,1,0,1,0,0,0,0,0,0],"id":41,"left_children":[1,3,5,7,9,-1,11,-1,-1,-1,-1,-1,-1],"loss_changes":[9.1445446E-4,9.0408325E-4,1.638636E-3,1.9955337E-3,7.5495243E-4,0E0,9.5531344E-4,0E0,0E0,0E0,0E0,0E0,0E0],"parents":[2147483647,0,0,1,1,2,2,3,3,4,4,6,6],"right_children":[2,4,6,8,10,-1,12,-1,-1,-1,-1,-1,-1],"split_conditions":[1.3620496E-1,-4.7888887E-1,-1.3548265E0,1.0027831E0,-8.2906544E-2,1.4286587E-3,-2.7846318E-1,-6.3505885E-4,-2.8946377E-5,-6.406953E-4,-6.844037E-4,-5.618015E-4,-6.583684E-4],"split_indices":[2,6,20,7,10,0,3,0,0,0,0,0,0],"split_type":[0,0,0,0,0,0,0,0,0,0,0,0,0],"sum_hessian":[3.5434E4,3.0999E4,4.435E3,5.179E3,2.582E4,3E0,4.432E3,5.124E3,5.5E1,5.263E3,2.0557E4,1.78E3,2.652E3],"tree_param":{"num_deleted":"0","num_feature":"21","num_nodes":"13","size_leaf_vector":"0"}},{"base_weights":[-5.953586E-3,-5.8053005E-3,-6.1277016E-3,-4.8168325E-3,-5.9248386E-3,-6.145898E-3,-3.7835257E-3,-5.102062E-3,1.935971E-1,-5.6824144E-3,-6.299471E-3,-6.453028E-3,-6.0030306E-3,-5.5328705E-3,5.182938E-2],"categories":[],"categories_nodes":[],"categories_segments":[],"categories_sizes":[],"default_left":[1,1,1,1,1,1,1,0,0,0,0,0,0,0,0],"id":42,"left_children":[1,3,5,7,9,11,13,-1,-1,-1,-1,-1,-1,-1,-1],"loss_changes":[8.794069E-4,2.2349358E-3,6.711483E-4,1.1824945E-1,1.5158057E-3,6.700754E-4,1.2739391E-2,0E0,0E0,0E0,0E0,0E0,0E0,0E0,0E0],"parents":[2147483647,0,0,1,1,2,2,3,3,4,4,5,5,6,6],"right_children":[2,4,6,8,10,12,14,-1,-1,-1,-1,-1,-1,-1,-1],"split_conditions":[-1.6452646E-1,-8.29175E-2,7.5503635E-1,-8.292568E-2,2.2040239E-1,-2.0826474E-1,1.2185694E-2,-5.102062E-4,1.935971E-2,-5.6824146E-4,-6.299471E-4,-6.453028E-4,-6.0030306E-4,-5.5328704E-4,5.182938E-3],"split_indices":[3,10,7,10,5,2,9,0,0,0,0,0,0,0,0],"split_type":[0,0,0,0,0,0,0,0,0,0,0,0,0,0,0],"sum_hessian":[3.5434E4,1.9155E4,1.6279E4,2.071E3,1.7084E4,1.6152E4,1.27E2,2.069E3,2E0,1.0382E4,6.702E3,5.114E3,1.1038E4,1.24E2,3E0],"tree_param":{"num_deleted":"0","num_feature":"21","num_nodes":"15","size_leaf_vector":"0"}},{"base_weights":[-5.357634E-3,-7.5956993E-3,-5.345545E-3,9.355152E-3,-7.921146E-3,-5.3657885E-3,-3.153743E-3,-6.3625085E-3,2.8254068E-2,-8.022115E-3,5.3284653E-3,-5.191629E-3,-5.526569E-3,2.280333E-2,-3.965189E-3],"categories":[],"categories_nodes":[],"categories_segments":[],"categories_sizes":[],"default_left":[1,1,1,1,1,1,1,0,0,0,0,0,0,0,0],"id":43,"left_children":[1,3,5,7,9,11,13,-1,-1,-1,-1,-1,-1,-1,-1],"loss_changes":[9.1814995E-4,1.1112252E-3,1.5470982E-3,1.3679538E-3,2.9023644E-4,9.4914436E-4,6.935818E-3,0E0,0E0,0E0,0E0,0E0,0E0,0E0,0E0],"parents":[2147483647,0,0,1,1,2,2,3,3,4,4,5,5,6,6],"right_children":[2,4,6,8,10,12,14,-1,-1,-1,-1,-1,-1,-1,-1],"split_conditions":[-2.525397E-1,-1.3717923E0,6.3998416E-2,1.4867736E0,1.145644E0,-6.273478E-2,-1.0447022E0,-6.362509E-4,2.8254068E-3,-8.0221146E-4,5.3284655E-4,-5.191629E-4,-5.5265694E-4,2.280333E-3,-3.9651894E-4],"split_indices":[2,6,18,0,7,5,12,0,0,0,0,0,0,0,0],"split_type":[0,0,0,0,0,0,0,0,0,0,0,0,0,0,0],"sum_hessian":[3.5434E4,1.87E2,3.5247E4,3E0,1.84E2,3.4923E4,3.24E2,2E0,1E0,1.83E2,1E0,1.678E4,1.8143E4,9E0,3.15E2],"tree_param":{"num_deleted":"0","num_feature":"21","num_nodes":"15","size_leaf_vector":"0"}},{"base_weights":[-4.821793E-3,-6.148187E-3,-4.803211E-3,-5.804995E-3,-9.304696E-3,-4.896491E-3,-4.5208544E-3,-6.0114493E-3,-1.3896496E-3,-9.600223E-3,-1.8687191E-3,-5.065548E-3,-4.695895E-3,-4.589321E-3,-2.300384E-3],"categories":[],"categories_nodes":[],"categories_segments":[],"categories_sizes":[],"default_left":[1,1,1,1,1,1,1,0,0,0,0,0,0,0,0],"id":44,"left_children":[1,3,5,7,9,11,13,-1,-1,-1,-1,-1,-1,-1,-1],"loss_changes":[8.4388256E-4,4.7246367E-4,8.983016E-4,3.9364677E-4,8.314662E-5,8.6683035E-4,1.310885E-3,0E0,0E0,0E0,0E0,0E0,0E0,0E0,0E0],"parents":[2147483647,0,0,1,1,2,2,3,3,4,4,5,5,6,6],"right_children":[2,4,6,8,10,12,14,-1,-1,-1,-1,-1,-1,-1,-1],"split_conditions":[-2.3101175E0,2.5893845E-2,-9.478136E-3,1.3532505E0,2.6437407E0,-1.6504934E-1,2.0094223E0,-6.011449E-4,-1.3896496E-4,-9.600223E-4,-1.8687191E-4,-5.065548E-4,-4.6958952E-4,-4.589321E-4,-2.3003841E-4],"split_indices":[1,18,7,14,3,2,0,0,0,0,0,0,0,0,0],"split_type":[0,0,0,0,0,0,0,0,0,0,0,0,0,0,0],"sum_hessian":[3.5434E4,4.85E2,3.4949E4,4.4E2,4.5E1,2.6258E4,8.691E3,4.2E2,2E1,4.3E1,2E0,1.4236E4,1.2022E4,8.43E3,2.61E2],"tree_param":{"num_deleted":"0","num_feature":"21","num_nodes":"15","size_leaf_vector":"0"}},{"base_weights":[-4.339714E-3,-4.5256815E-3,-4.21722E-3,-2.2649954E-3,-4.5487513E-3,-4.323592E-3,-3.7804842E-3,-3.8163846E-3,4.1626904E-2,-4.7586355E-3,-4.389885E-3,-6.624546E-3,-4.3083797E-3,-3.913907E-3,3.9141756E-3],"categories":[],"categories_nodes":[],"categories_segments":[],"categories_sizes":[],"default_left":[1,1,1,1,1,1,1,0,0,0,0,0,0,0,0],"id":45,"left_children":[1,3,5,7,9,11,13,-1,-1,-1,-1,-1,-1,-1,-1],"loss_changes":[7.880926E-4,7.2288513E-4,9.768009E-4,9.964317E-3,4.4310093E-4,5.7291985E-4,4.322078E-3,0E0,0E0,0E0,0E0,0E0,0E0,0E0,0E0],"parents":[2147483647,0,0,1,1,2,2,3,3,4,4,5,5,6,6],"right_children":[2,4,6,8,10,12,14,-1,-1,-1,-1,-1,-1,-1,-1],"split_conditions":[-2.3442933E-1,-1.8303677E-1,2.0109775E-2,1.9573405E0,-1.9032979E-1,-2.525397E-1,2.5556311E-2,-3.8163847E-4,4.1626906E-3,-4.7586355E-4,-4.389885E-4,-6.624546E-4,-4.3083797E-4,-3.913907E-4,3.9141756E-4],"split_indices":[16,11,7,14,2,2,8,0,0,0,0,0,0,0,0],"split_type":[0,0,0,0,0,0,0,0,0,0,0,0,0,0,0],"sum_hessian":[3.5434E4,1.4057E4,2.1377E4,1.43E2,1.3914E4,1.7183E4,4.194E3,1.39E2,4E0,5.982E3,7.932E3,1.1E2,1.7073E4,4.123E3,7.1E1],"tree_param":{"num_deleted":"0","num_feature":"21","num_nodes":"15","size_leaf_vector":"0"}},{"base_weights":[-3.9056926E-3,-3.7695244E-3,-4.0598796E-3,-2.875767E-3,-3.8771636E-3,-4.1197664E-3,-3.5292644E-3,-3.156371E-3,2.8295422E-1,-4.007413E-3,-3.246317E-3,-4.2052483E-3,-3.7674755E-3,-3.6154997E-3,1.5064416E-2],"categories":[],"categories_nodes":[],"categories_segments":[],"categories_sizes":[],"default_left":[1,1,1,1,1,1,1,0,0,0,0,0,0,0,0],"id":46,"left_children":[1,3,5,7,9,11,13,-1,-1,-1,-1,-1,-1,-1,-1],"loss_changes":[7.286668E-4,1.8004477E-3,5.131066E-4,1.635489E-1,1.367718E-3,4.3332577E-4,2.7658679E-3,0E0,0E0,0E0,0E0,0E0,0E0,0E0,0E0],"parents":[2147483647,0,0,1,1,2,2,3,3,4,4,5,5,6,6],"right_children":[2,4,6,8,10,12,14,-1,-1,-1,-1,-1,-1,-1,-1],"split_conditions":[-1.8228334E-1,-8.292198E-2,8.679072E-1,-8.292568E-2,-1.0678599E-3,1.032076E0,1.1396347E0,-3.156371E-4,2.8295422E-2,-4.0074132E-4,-3.246317E-4,-4.2052483E-4,-3.7674754E-4,-3.6155E-4,1.5064416E-3],"split_indices":[3,10,0,10,17,3,7,0,0,0,0,0,0,0,0],"split_type":[0,0,0,0,0,0,0,0,0,0,0,0,0,0,0],"sum_hessian":[3.5434E4,1.883E4,1.6604E4,2.027E3,1.6803E4,1.4914E4,1.69E3,2.026E3,1E0,1.3923E4,2.88E3,1.1993E4,2.921E3,1.683E3,7E0],"tree_param":{"num_deleted":"0","num_feature":"21","num_nodes":"15","size_leaf_vector":"0"}},{"base_weights":[-3.5143443E-3,-5.091382E-3,-3.5011414E-3,-7.3990654E-3,-4.6184836E-3,-3.690489E-3,-3.3851264E-3,-4.6676118E-4,-7.53663E-3,1.3903912E-2,-4.751378E-3,-3.695852E-3,8.8445395E-3,-3.2309832E-3,-3.7611756E-3],"categories":[],"categories_nodes":[],"categories_segments":[],"categories_sizes":[],"default_left":[1,1,1,1,1,1,1,0,0,0,0,0,0,0,0],"id":47,"left_children":[1,3,5,7,9,11,13,-1,-1,-1,-1,-1,-1,-1,-1],"loss_changes":[7.200241E-4,2.8448645E-4,7.595122E-4,4.2256666E-5,6.691376E-4,9.2951953E-4,1.2517124E-3,0E0,0E0,0E0,0E0,0E0,0E0,0E0,0E0],"parents":[2147483647,0,0,1,1,2,2,3,3,4,4,5,5,6,6],"right_children":[2,4,6,8,10,12,14,-1,-1,-1,-1,-1,-1,-1,-1],"split_conditions":[-2.6732616E0,1.4143785E-2,-5.177394E-1,1.2860727E0,1.4450821E-2,1.7189132E0,3.3361477E-1,-4.667612E-5,-7.53663E-4,1.3903913E-3,-4.7513781E-4,-3.695852E-4,8.8445394E-4,-3.2309833E-4,-3.7611756E-4],"split_indices":[1,8,20,15,8,6,5,0,0,0,0,0,0,0,0],"split_type":[0,0,0,0,0,0,0,0,0,0,0,0,0,0,0],"sum_hessian":[3.5434E4,2.91E2,3.5143E4,4.7E1,2.44E2,1.334E4,2.1803E4,1E0,4.6E1,1E0,2.43E2,1.3335E4,5E0,1.5471E4,6.332E3],"tree_param":{"num_deleted":"0","num_feature":"21","num_nodes":"15","size_leaf_vector":"0"}},{"base_weights":[-3.162912E-3,-3.2598847E-3,-2.9684524E-3,-2.331651E-3,-3.290456E-3,2.6896805E-1,-3.014288E-3,-2.6236235E-3,1.7707901E-2,1.0463869E-2,-3.2939203E-3,-3.0381482E-3,-4.02828E-4],"categories":[],"categories_nodes":[],"categories_segments":[],"categories_sizes":[],"default_left":[1,1,1,1,1,0,1,0,0,0,0,0,0],"id":48,"left_children":[1,3,5,7,9,-1,11,-1,-1,-1,-1,-1,-1],"loss_changes":[6.585419E-4,6.6298246E-4,1.4791489E-1,4.475664E-3,1.1245459E-3,0E0,7.3409826E-4,0E0,0E0,0E0,0E0,0E0,0E0],"parents":[2147483647,0,0,1,1,2,2,3,3,4,4,6,6],"right_children":[2,4,6,8,10,-1,12,-1,-1,-1,-1,-1,-1],"split_conditions":[3.9835697E-1,-2.4708691E-1,3.9838505E-1,9.869219E-1,-2.5291312E-1,2.6896805E-2,1.0448081E0,-2.6236236E-4,1.7707901E-3,1.0463869E-3,-3.2939203E-4,-3.0381483E-4,-4.02828E-5],"split_indices":[16,2,16,7,17,0,7,0,0,0,0,0,0],"split_type":[0,0,0,0,0,0,0,0,0,0,0,0,0],"sum_hessian":[3.5434E4,2.3633E4,1.1801E4,7.56E2,2.2877E4,1E0,1.18E4,7.46E2,1E1,5E0,2.2872E4,1.1693E4,1.07E2],"tree_param":{"num_deleted":"0","num_feature":"21","num_nodes":"13","size_leaf_vector":"0"}},{"base_weights":[-2.8458089E-3,-4.7832727E-3,-2.8353943E-3,1.0413701E-2,-5.0860005E-3,5.5535813E-3,-2.8398382E-3,-4.530635E-3,2.7623354E-2,-3.2761225E-3,-5.928533E-3,-3.3029018E-3,1.8144108E-2,-2.167641E-3,-2.8723623E-3],"categories":[],"categories_nodes":[],"categories_segments":[],"categories_sizes":[],"default_left":[1,1,1,1,1,1,1,0,0,0,0,0,0,0,0],"id":49,"left_children":[1,3,5,7,9,11,13,-1,-1,-1,-1,-1,-1,-1,-1],"loss_changes":[7.0145726E-4,9.1786636E-4,1.3297796E-3,1.1538987E-3,2.6268E-4,2.178576E-3,7.6398253E-4,0E0,0E0,0E0,0E0,0E0,0E0,0E0,0E0],"parents":[2147483647,0,0,1,1,2,2,3,3,4,4,5,5,6,6],"right_children":[2,4,6,8,10,12,14,-1,-1,-1,-1,-1,-1,-1,-1],"split_conditions":[-2.525397E-1,-1.3717923E0,-2.55936E-1,1.4867736E0,9.501592E-1,-2.5600117E-1,-2.4855149E-1,-4.5306352E-4,2.7623354E-3,-3.2761224E-4,-5.9285335E-4,-3.3029018E-4,1.8144109E-3,-2.1676409E-4,-2.8723624E-4],"split_indices":[2,6,17,0,20,17,17,0,0,0,0,0,0,0,0],"split_type":[0,0,0,0,0,0,0,0,0,0,0,0,0,0,0],"sum_hessian":[3.5434E4,1.87E2,3.5247E4,3E0,1.84E2,1.8E1,3.5229E4,2E0,1E0,6E1,1.24E2,1.1E1,7E0,1.629E3,3.36E4],"tree_param":{"num_deleted":"0","num_feature":"21","num_nodes":"15","size_leaf_vector":"0"}},{"base_weights":[-2.561161E-3,-2.612225E-3,-2.2037348E-3,-2.3395473E-3,-2.688994E-3,1.5700806E-2,-2.2193934E-3,-2.3561188E-3,3.6090802E-2,-2.7519232E-3,-2.3201564E-3,1.3889715E-2,-2.229799E-3],"categories":[],"categories_nodes":[],"categories_segments":[],"categories_sizes":[],"default_left":[1,1,1,1,1,0,1,0,0,0,0,0,0],"id":50,"left_children":[1,3,5,7,9,-1,11,-1,-1,-1,-1,-1,-1],"loss_changes":[6.4100325E-4,6.426275E-4,1.2785215E-3,4.4270754E-3,5.5491924E-4,0E0,7.7406317E-4,0E0,0E0,0E0,0E0,0E0,0E0],"parents":[2147483647,0,0,1,1,2,2,3,3,4,4,6,6],"right_children":[2,4,6,8,10,-1,12,-1,-1,-1,-1,-1,-1],"split_conditions":[1.3620496E-1,-2.8398551E-2,-1.3548265E0,-2.8407183E-2,2.0909231E-2,1.5700806E-3,1.3628715E-1,-2.3561188E-4,3.6090803E-3,-2.7519232E-4,-2.3201565E-4,1.3889716E-3,-2.2297991E-4],"split_indices":[2,11,20,11,8,0,2,0,0,0,0,0,0],"split_type":[0,0,0,0,0,0,0,0,0,0,0,0,0],"sum_hessian":[3.5434E4,3.0999E4,4.435E3,6.817E3,2.4182E4,3E0,4.432E3,6.815E3,2E0,2.0652E4,3.53E3,2E0,4.43E3],"tree_param":{"num_deleted":"0","num_feature":"21","num_nodes":"13","size_leaf_vector":"0"}},{"base_weights":[-2.304887E-3,-3.4358518E-3,-2.2890943E-3,-6.0468307E-3,-3.095482E-3,-2.3235225E-3,-1.6916611E-3,-5.0282E-3,-9.277908E-3,1.7747732E-2,-3.233701E-3,-9.284395E-4,-2.34345E-3,-3.514802E-3,-1.4891663E-3],"categories":[],"categories_nodes":[],"categories_segments":[],"categories_sizes":[],"default_left":[1,1,1,1,1,1,1,0,0,0,0,0,0,0,0],"id":51,"left_children":[1,3,5,7,9,11,13,-1,-1,-1,-1,-1,-1,-1,-1],"loss_changes":[6.250441E-4,4.1318964E-4,7.149428E-4,1.343689E-4,1.3019517E-3,9.164363E-4,6.9915503E-4,0E0,0E0,0E0,0E0,0E0,0E0,0E0,0E0],"parents":[2147483647,0,0,1,1,2,2,3,3,4,4,5,5,6,6],"right_children":[2,4,6,8,10,12,14,-1,-1,-1,-1,-1,-1,-1,-1],"split_conditions":[-2.3101175E0,-2.4775302E-1,1.3652726E0,4.4175502E-2,-2.4713859E-1,-1.7495193E-1,-1.7667618E-1,-5.0282E-4,-9.277908E-4,1.7747732E-3,-3.233701E-4,-9.284395E-5,-2.34345E-4,-3.514802E-4,-1.4891663E-4],"split_indices":[1,2,0,7,2,11,7,0,0,0,0,0,0,0,0],"split_type":[0,0,0,0,0,0,0,0,0,0,0,0,0,0,0],"sum_hessian":[3.5434E4,4.85E2,3.4949E4,5.4E1,4.31E2,3.3042E4,1.907E3,4.3E1,1.1E1,2E0,4.29E2,4.66E2,3.2576E4,1.89E2,1.718E3],"tree_param":{"num_deleted":"0","num_feature":"21","num_nodes":"15","size_leaf_vector":"0"}},{"base_weights":[-2.074421E-3,-3.8267248E-3,-2.065016E-3,1.0210009E-2,-4.1095368E-3,2.7019903E-3,-2.0718644E-3,-4.009622E-3,2.6434451E-2,-1.4230362E-3,-4.5596156E-3,3.4896642E-2,1.3601644E-3,-1.9556053E-3,-2.22705E-3],"categories":[],"categories_nodes":[],"categories_segments":[],"categories_sizes":[],"default_left":[1,1,1,1,1,1,1,0,0,0,0,0,0,0,0],"id":52,"left_children":[1,3,5,7,9,11,13,-1,-1,-1,-1,-1,-1,-1,-1],"loss_changes":[5.760938E-4,7.882726E-4,1.1563152E-3,1.0288146E-3,2.1720189E-4,2.1557154E-3,6.3069165E-4,0E0,0E0,0E0,0E0,0E0,0E0,0E0,0E0],"parents":[2147483647,0,0,1,1,2,2,3,3,4,4,5,5,6,6],"right_children":[2,4,6,8,10,12,14,-1,-1,-1,-1,-1,-1,-1,-1],"split_conditions":[-2.525397E-1,-1.3717923E0,-2.5576025E-1,1.4867736E0,7.7187335E-1,-2.065935E0,1.7050333E-1,-4.0096222E-4,2.6434453E-3,-1.4230363E-4,-4.5596156E-4,3.4896643E-3,1.3601645E-4,-1.9556054E-4,-2.22705E-4],"split_indices":[2,6,17,0,15,12,14,0,0,0,0,0,0,0,0],"split_type":[0,0,0,0,0,0,0,0,0,0,0,0,0,0,0],"sum_hessian":[3.5434E4,1.87E2,3.5247E4,3E0,1.84E2,5E1,3.5197E4,2E0,1E0,2.7E1,1.57E2,1E0,4.9E1,2.013E4,1.5067E4],"tree_param":{"num_deleted":"0","num_feature":"21","num_nodes":"15","size_leaf_vector":"0"}},{"base_weights":[-1.866842E-3,-1.7453256E-3,-1.9959041E-3,-2.8044626E-3,-1.6787738E-3,-1.4102835E-3,-2.0619906E-3,-2.3622266E-3,-4.38944E-3,1.3242238E-3,-1.7267949E-3,-3.3466609E-3,-1.2180737E-3,-1.9176932E-3,-2.290769E-3],"categories":[],"categories_nodes":[],"categories_segments":[],"categories_sizes":[],"default_left":[1,1,1,1,1,1,1,0,0,0,0,0,0,0,0],"id":53,"left_children":[1,3,5,7,9,11,13,-1,-1,-1,-1,-1,-1,-1,-1],"loss_changes":[5.522594E-4,1.2823269E-3,6.618649E-4,7.452378E-4,2.4800561E-3,6.4539677E-4,5.050823E-4,0E0,0E0,0E0,0E0,0E0,0E0,0E0,0E0],"parents":[2147483647,0,0,1,1,2,2,3,3,4,4,5,5,6,6],"right_children":[2,4,6,8,10,12,14,-1,-1,-1,-1,-1,-1,-1,-1],"split_conditions":[-5.3270593E-2,-2.4264157E-3,-4.86542E-2,-5.813878E-4,1.3645997E-2,-1.2375145E0,1.3659076E-1,-2.3622267E-4,-4.3894403E-4,1.3242238E-4,-1.7267949E-4,-3.3466608E-4,-1.2180737E-4,-1.9176932E-4,-2.290769E-4],"split_indices":[10,9,11,18,8,1,5,0,0,0,0,0,0,0,0],"split_type":[0,0,0,0,0,0,0,0,0,0,0,0,0,0,0],"sum_hessian":[3.5434E4,1.8258E4,1.7176E4,1.077E3,1.7181E4,1.744E3,1.5432E4,8.44E2,2.33E2,2.7E2,1.6911E4,1.56E2,1.588E3,9.469E3,5.963E3],"tree_param":{"num_deleted":"0","num_feature":"21","num_nodes":"15","size_leaf_vector":"0"}},{"base_weights":[-1.6802028E-3,-1.561808E-3,-1.8194099E-3,-1.5470817E-3,-7.2725955E-3,-2.089501E-3,-1.7173835E-3,-1.5739676E-3,2.5608057E-1,-1.098712E-2,-3.2671674E-3,-2.1288977E-3,6.4920564E-4,6.8432814E-3,-1.730291E-3],"categories":[],"categories_nodes":[],"categories_segments":[],"categories_sizes":[],"default_left":[1,1,1,1,1,1,1,0,0,0,0,0,0,0,0],"id":54,"left_children":[1,3,5,7,9,11,13,-1,-1,-1,-1,-1,-1,-1,-1],"loss_changes":[5.811751E-4,1.599744E-3,4.450269E-4,1.3275541E-1,6.931382E-4,4.824903E-4,1.3181493E-3,0E0,0E0,0E0,0E0,0E0,0E0,0E0,0E0],"parents":[2147483647,0,0,1,1,2,2,3,3,4,4,5,5,6,6],"right_children":[2,4,6,8,10,12,14,-1,-1,-1,-1,-1,-1,-1,-1],"split_conditions":[-1.6452646E-1,2.5563883E-2,-2.1685186E-1,2.5550105E-2,-6.022699E-1,4.34577E-1,-2.1670763E-1,-1.5739676E-4,2.5608057E-2,-1.098712E-3,-3.2671675E-4,-2.1288978E-4,6.492057E-5,6.8432814E-4,-1.7302911E-4],"split_indices":[3,8,17,8,3,7,17,0,0,0,0,0,0,0,0],"split_type":[0,0,0,0,0,0,0,0,0,0,0,0,0,0,0],"sum_hessian":[3.5434E4,1.9155E4,1.6279E4,1.9107E4,4.8E1,4.458E3,1.1821E4,1.9106E4,1E0,2.4E1,2.4E1,4.395E3,6.3E1,1.7E1,1.1804E4],"tree_param":{"num_deleted":"0","num_feature":"21","num_nodes":"15","size_leaf_vector":"0"}},{"base_weights":[-1.5114943E-3,-1.661421E-3,-1.412833E-3,6.4474455E-4,-1.6779894E-3,-1.4964517E-3,-1.0699687E-3,-1.4753187E-3,1.0632554E-1,-1.4532268E-3,-1.793555E-3,-1.4718436E-3,-2.679273E-3,-1.1720023E-3,4.7891526E-3],"categories":[],"categories_nodes":[],"categories_segments":[],"categories_sizes":[],"default_left":[1,1,1,1,1,1,1,0,0,0,0,0,0,0,0],"id":55,"left_children":[1,3,5,7,9,11,13,-1,-1,-1,-1,-1,-1,-1,-1],"loss_changes":[5.2180886E-4,5.382262E-4,6.113015E-4,2.278591E-2,3.5994872E-4,4.962273E-4,2.5134995E-3,0E0,0E0,0E0,0E0,0E0,0E0,0E0,0E0],"parents":[2147483647,0,0,1,1,2,2,3,3,4,4,5,5,6,6],"right_children":[2,4,6,8,10,12,14,-1,-1,-1,-1,-1,-1,-1,-1],"split_conditions":[-2.3442933E-1,-2.136034E-1,2.0109775E-2,-2.1412578E-1,-2.4713293E-1,2.9833338E0,2.5556311E-2,-1.4753187E-4,1.0632554E-2,-1.4532269E-4,-1.793555E-4,-1.4718436E-4,-2.679273E-4,-1.1720023E-4,4.7891526E-4],"split_indices":[16,11,7,11,6,20,8,0,0,0,0,0,0,0,0],"split_type":[0,0,0,0,0,0,0,0,0,0,0,0,0,0,0],"sum_hessian":[3.5434E4,1.4057E4,2.1377E4,1E2,1.3957E4,1.7183E4,4.194E3,9.9E1,1E0,4.744E3,9.213E3,1.6835E4,3.48E2,4.123E3,7.1E1],"tree_param":{"num_deleted":"0","num_feature":"21","num_nodes":"15","size_leaf_vector":"0"}},{"base_weights":[-1.3600596E-3,-1.4096922E-3,-1.060319E-3,-1.115047E-3,-1.469384E-3,1.5218451E-2,-1.073041E-3,-1.1661535E-3,3.369831E-3,-1.5299966E-3,-1.1143138E-3,-6.511661E-4,-1.3506025E-3],"categories":[],"categories_nodes":[],"categories_segments":[],"categories_sizes":[],"default_left":[1,1,1,1,1,0,1,0,0,0,0,0,0],"id":56,"left_children":[1,3,5,7,9,-1,11,-1,-1,-1,-1,-1,-1],"loss_changes":[5.2566826E-4,5.329959E-4,1.0596844E-3,1.1786129E-3,5.4223463E-4,0E0,5.886997E-4,0E0,0E0,0E0,0E0,0E0,0E0],"parents":[2147483647,0,0,1,1,2,2,3,3,4,4,6,6],"right_children":[2,4,6,8,10,-1,12,-1,-1,-1,-1,-1,-1],"split_conditions":[9.620889E-2,-4.7888887E-1,-1.3548265E0,9.5195293E-1,8.779272E-1,1.5218451E-3,-2.7846318E-1,-1.16615345E-4,3.369831E-4,-1.5299967E-4,-1.11431385E-4,-6.511661E-5,-1.3506025E-4],"split_indices":[2,6,20,7,19,0,3,0,0,0,0,0,0],"split_type":[0,0,0,0,0,0,0,0,0,0,0,0,0],"sum_hessian":[3.5434E4,3.0397E4,5.037E3,5.124E3,2.5273E4,3E0,5.034E3,5.067E3,5.7E1,2.1585E4,3.688E3,1.999E3,3.035E3],"tree_param":{"num_deleted":"0","num_feature":"21","num_nodes":"13","size_leaf_vector":"0"}},{"base_weights":[-1.2240176E-3,-7.738182E-3,-1.2217764E-3,-4.724422E-3,-1.2584596E-2,7.988377E-3,-1.2238222E-3,-2.614925E-3,1.9245408E-2,-3.032509E-3,-1.2143421E-3],"categories":[],"categories_nodes":[],"categories_segments":[],"categories_sizes":[],"default_left":[1,1,1,0,0,1,1,0,0,0,0],"id":57,"left_children":[1,3,5,-1,-1,7,9,-1,-1,-1,-1],"loss_changes":[5.0788745E-4,1.1581619E-4,6.772727E-4,0E0,0E0,1.005219E-3,6.035939E-4,0E0,0E0,0E0,0E0],"parents":[2147483647,0,0,1,1,2,2,5,5,6,6],"right_children":[2,4,6,-1,-1,8,10,-1,-1,-1,-1],"split_conditions":[-1.4219227E0,-5.16936E-2,-2.6015608E0,-4.7244222E-4,-1.2584596E-3,1.0217633E-2,-2.525397E-1,-2.614925E-4,1.9245408E-3,-3.032509E-4,-1.2143421E-4],"split_indices":[6,7,5,0,0,8,2,0,0,0,0],"split_type":[0,0,0,0,0,0,0,0,0,0,0],"sum_hessian":[3.5434E4,1.1E1,3.5423E4,8E0,3E0,7E0,3.5416E4,4E0,3E0,1.83E2,3.5233E4],"tree_param":{"num_deleted":"0","num_feature":"21","num_nodes":"11","size_leaf_vector":"0"}},{"base_weights":[-1.1016297E-3,-2.6407267E-3,-1.0924231E-3,-1.6183495E-3,-3.9598974E-3,-9.894116E-4,-1.233323E-3,-5.361127E-3,-1.0326086E-3,-2.3295782E-3,-4.5091226E-3,-9.916506E-4,2.2291156E-2,6.803566E-5,-1.2629487E-3],"categories":[],"categories_nodes":[],"categories_segments":[],"categories_sizes":[],"default_left":[1,1,1,1,1,1,1,0,0,0,0,0,0,0,0],"id":58,"left_children":[1,3,5,7,9,11,13,-1,-1,-1,-1,-1,-1,-1,-1],"loss_changes":[4.9922615E-4,2.768163E-4,5.100593E-4,2.5753982E-4,7.097819E-5,1.0830946E-3,5.734954E-4,0E0,0E0,0E0,0E0,0E0,0E0,0E0,0E0],"parents":[2147483647,0,0,1,1,2,2,3,3,4,4,5,5,6,6],"right_children":[2,4,6,8,10,12,14,-1,-1,-1,-1,-1,-1,-1,-1],"split_conditions":[-2.9479873E0,1.4942773E-1,-4.57332E-2,-1.2080699E-1,1.8714876E0,-4.573813E-2,-1.5694731E-1,-5.3611276E-4,-1.03260856E-4,-2.3295781E-4,-4.5091225E-4,-9.916507E-5,2.2291157E-3,6.803566E-6,-1.2629488E-4],"split_indices":[4,16,10,11,15,10,11,0,0,0,0,0,0,0,0],"split_type":[0,0,0,0,0,0,0,0,0,0,0,0,0,0,0],"sum_hessian":[3.5434E4,2.09E2,3.5225E4,1.19E2,9E1,2.0353E4,1.4872E4,1.5E1,1.04E2,2.4E1,6.6E1,2.0352E4,1E0,3.31E2,1.4541E4],"tree_param":{"num_deleted":"0","num_feature":"21","num_nodes":"15","size_leaf_vector":"0"}},{"base_weights":[-9.914474E-4,-1.584214E-3,-9.68826E-4,-1.4066575E-3,-3.3360233E-3,2.4322388E-1,-9.831055E-4,-1.2827995E-3,-4.0758974E-3,-5.429532E-3,-2.692359E-3,-1.015176E-3,-3.041401E-4],"categories":[],"categories_nodes":[],"categories_segments":[],"categories_sizes":[],"default_left":[1,1,1,1,1,0,1,0,0,0,0,0,0],"id":59,"left_children":[1,3,5,7,9,-1,11,-1,-1,-1,-1,-1,-1],"loss_changes":[4.7362223E-4,3.9997743E-4,1.1926617E-1,3.8587884E-4,1.4573615E-4,0E0,7.4294955E-4,0E0,0E0,0E0,0E0,0E0,0E0],"parents":[2147483647,0,0,1,1,2,2,3,3,4,4,6,6],"right_children":[2,4,6,8,10,-1,12,-1,-1,-1,-1,-1,-1],"split_conditions":[-1.3299806E0,2.9740262E0,-1.3292052E0,2.092317E-1,-8.668837E-2,2.4322389E-2,-3.6367844E-3,-1.2827995E-4,-4.0758975E-4,-5.429532E-4,-2.692359E-4,-1.01517595E-4,-3.041401E-5],"split_indices":[0,20,0,10,10,0,18,0,0,0,0,0,0],"split_type":[0,0,0,0,0,0,0,0,0,0,0,0,0],"sum_hessian":[3.5434E4,1.3E3,3.4134E4,1.182E3,1.18E2,1E0,3.4133E4,1.131E3,5.1E1,2.6E1,9.2E1,3.2593E4,1.54E3],"tree_param":{"num_deleted":"0","num_feature":"21","num_nodes":"13","size_leaf_vector":"0"}},{"base_weights":[-8.91658E-4,-7.93473E-4,-1.0317354E-3,-8.1940106E-4,4.7018575E-3,-1.0540211E-3,1.9132724E-3,7.880049E-3,-8.269179E-4,-1.3848748E-5,2.3106268E-1,-6.863583E-4,-1.204827E-3,7.379098E-2,-1.01046106E-4],"categories":[],"categories_nodes":[],"categories_segments":[],"categories_sizes":[],"default_left":[1,1,1,1,1,1,1,0,0,0,0,0,0,0,0],"id":60,"left_children":[1,3,5,7,9,11,13,-1,-1,-1,-1,-1,-1,-1,-1],"loss_changes":[4.865378E-4,2.9727817E-3,9.601703E-4,1.3627457E-3,1.0461341E-1,8.0258027E-4,1.5933763E-2,0E0,0E0,0E0,0E0,0E0,0E0,0E0,0E0],"parents":[2147483647,0,0,1,1,2,2,3,3,4,4,5,5,6,6],"right_children":[2,4,6,8,10,12,14,-1,-1,-1,-1,-1,-1,-1,-1],"split_conditions":[-1.8527642E-2,-1.8545248E-2,9.993366E-1,-1.1305034E0,2.5381086E-2,-2.4069954E-1,1.0282569E0,7.880049E-4,-8.269179E-5,-1.3848747E-6,2.3106268E-2,-6.863583E-5,-1.204827E-4,7.3790983E-3,-1.0104611E-5],"split_indices":[18,18,7,6,8,17,7,0,0,0,0,0,0,0,0],"split_type":[0,0,0,0,0,0,0,0,0,0,0,0,0,0,0],"sum_hessian":[3.5434E4,2.0836E4,1.4598E4,2.0739E4,9.7E1,1.4489E4,1.09E2,1.7E1,2.0722E4,9.6E1,1E0,4.216E3,1.0273E4,2E0,1.07E2],"tree_param":{"num_deleted":"0","num_feature":"21","num_nodes":"15","size_leaf_vector":"0"}},{"base_weights":[-8.016176E-4,-1.7875293E-3,-7.884567E-4,-1.924503E-3,9.034535E-3,-8.1223913E-4,-5.4057455E-5,-3.3071833E-3,-9.941045E-4,-6.561723E-4,2.8744034E-2,6.096112E-4,-8.281316E-4,2.4378961E-2,-9.855333E-5],"categories":[],"categories_nodes":[],"categories_segments":[],"categories_sizes":[],"default_left":[1,1,1,1,1,1,1,0,0,0,0,0,0,0,0],"id":61,"left_children":[1,3,5,7,9,11,13,-1,-1,-1,-1,-1,-1,-1,-1],"loss_changes":[4.5837648E-4,7.081564E-4,6.1073713E-4,5.8976305E-4,1.1648549E-3,7.6592155E-4,1.1961138E-3,0E0,0E0,0E0,0E0,0E0,0E0,0E0,0E0],"parents":[2147483647,0,0,1,1,2,2,3,3,4,4,5,5,6,6],"right_children":[2,4,6,8,10,12,14,-1,-1,-1,-1,-1,-1,-1,-1],"split_conditions":[-1.3581865E-2,4.1470647E-1,1.7286379E0,-2.3094577E-1,9.197729E-1,-1.8293762E-1,-2.6015608E0,-3.3071832E-4,-9.9410456E-5,-6.561723E-5,2.8744035E-3,6.0961123E-5,-8.281317E-5,2.437896E-3,-9.855334E-6],"split_indices":[8,10,0,17,0,11,5,0,0,0,0,0,0,0,0],"split_type":[0,0,0,0,0,0,0,0,0,0,0,0,0,0,0],"sum_hessian":[3.5434E4,4.65E2,3.4969E4,4.6E2,5E0,3.3872E4,1.097E3,1.84E2,2.76E2,4E0,1E0,3.74E2,3.3498E4,1E0,1.096E3],"tree_param":{"num_deleted":"0","num_feature":"21","num_nodes":"15","size_leaf_vector":"0"}},{"base_weights":[-7.213208E-4,-6.652251E-4,-9.498672E-4,-4.8299937E-4,-8.420789E-4,1.1412283E-2,-9.852439E-4,-4.6696173E-4,-5.8082133E-3,-8.6538936E-4,5.406326E-4,1.3606234E-3,1.01196915E-1,-1.0273578E-3,2.1707292E-3],"categories":[],"categories_nodes":[],"categories_segments":[],"categories_sizes":[],"default_left":[1,1,1,1,1,1,1,0,0,0,0,0,0,0,0],"id":62,"left_children":[1,3,5,7,9,11,13,-1,-1,-1,-1,-1,-1,-1,-1],"loss_changes":[4.5366026E-4,9.166226E-4,3.064266E-3,1.1943937E-3,4.658606E-4,1.7912E-2,9.275507E-4,0E0,0E0,0E0,0E0,0E0,0E0,0E0,0E0],"parents":[2147483647,0,0,1,1,2,2,3,3,4,4,5,5,6,6],"right_children":[2,4,6,8,10,12,14,-1,-1,-1,-1,-1,-1,-1,-1],"split_conditions":[4.420176E-1,-1.6452646E-1,-9.8313314E-1,2.556448E-2,4.3503928E-1,-9.923177E-1,9.5645726E-2,-4.6696176E-5,-5.8082136E-4,-8.653894E-5,5.4063257E-5,1.3606234E-4,1.01196915E-2,-1.0273578E-4,2.1707293E-4],"split_indices":[5,3,6,8,7,6,18,0,0,0,0,0,0,0,0],"split_type":[0,0,0,0,0,0,0,0,0,0,0,0,0,0,0],"sum_hessian":[3.5434E4,2.8454E4,6.98E3,1.4016E4,1.4438E4,1.9E1,6.961E3,1.3975E4,4.1E1,1.4199E4,2.39E2,1.8E1,1E0,6.87E3,9.1E1],"tree_param":{"num_deleted":"0","num_feature":"21","num_nodes":"15","size_leaf_vector":"0"}},{"base_weights":[-6.4891466E-4,-7.707155E-4,-5.4656016E-4,-8.0667285E-4,4.994373E-4,-5.7003275E-4,2.8330155E-3,-2.2902786E-4,-8.703277E-4,3.063693E-3,-9.318531E-4,-1.9531012E-2,-5.6702853E-4,2.1957427E-1,-4.7240514E-4],"categories":[],"categories_nodes":[],"categories_segments":[],"categories_sizes":[],"default_left":[1,1,1,1,1,1,1,0,0,0,0,0,0,0,0],"id":63,"left_children":[1,3,5,7,9,11,13,-1,-1,-1,-1,-1,-1,-1,-1],"loss_changes":[4.413426E-4,7.3927455E-4,1.5293024E-3,5.78301E-4,1.6397616E-3,1.078404E-3,9.538773E-2,0E0,0E0,0E0,0E0,0E0,0E0,0E0,0E0],"parents":[2147483647,0,0,1,1,2,2,3,3,4,4,5,5,6,6],"right_children":[2,4,6,8,10,12,14,-1,-1,-1,-1,-1,-1,-1,-1],"split_conditions":[-1.8932825E-1,4.1170502E-1,2.5558624E-2,1.5090541E-2,-1.7817499E-1,-2.3163715E-1,2.5563883E-2,-2.2902786E-5,-8.703277E-5,3.063693E-4,-9.318531E-5,-1.9531011E-3,-5.6702855E-5,2.1957427E-2,-4.7240515E-5],"split_indices":[2,7,8,8,12,17,8,0,0,0,0,0,0,0,0],"split_type":[0,0,0,0,0,0,0,0,0,0,0,0,0,0,0],"sum_hessian":[3.5434E4,1.6177E4,1.9257E4,1.5732E4,4.45E2,1.9125E4,1.32E2,1.562E3,1.417E4,1.59E2,2.86E2,2E0,1.9123E4,1E0,1.31E2],"tree_param":{"num_deleted":"0","num_feature":"21","num_nodes":"15","size_leaf_vector":"0"}},{"base_weights":[-5.834587E-4,-1.1706976E-3,-5.623431E-4,-1.2271655E-3,1.6429374E-2,1.6142556E-3,-5.696686E-4,-3.7406236E-3,-9.6362963E-4,3.5173923E-2,-1.5434506E-3,-1.9536022E-4,1.0395523E-1,-1.1680072E-5,-5.966403E-4],"categories":[],"categories_nodes":[],"categories_segments":[],"categories_sizes":[],"default_left":[1,1,1,1,1,1,1,0,0,0,0,0,0,0,0],"id":64,"left_children":[1,3,5,7,9,11,13,-1,-1,-1,-1,-1,-1,-1,-1],"loss_changes":[4.387321E-4,1.2415886E-3,5.4633524E-4,8.08481E-4,1.4018592E-3,2.1318061E-2,5.130889E-4,0E0,0E0,0E0,0E0,0E0,0E0,0E0,0E0],"parents":[2147483647,0,0,1,1,2,2,3,3,4,4,5,5,6,6],"right_children":[2,4,6,8,10,12,14,-1,-1,-1,-1,-1,-1,-1,-1],"split_conditions":[-1.587702E0,2.8316598E0,-1.5188683E0,-2.4777094E-1,-3.9134565E-1,-1.5125711E0,-7.4135107E-1,-3.7406237E-4,-9.6362965E-5,3.5173923E-3,-1.5434506E-4,-1.9536023E-5,1.0395523E-2,-1.1680072E-6,-5.9664028E-5],"split_indices":[1,13,4,2,0,1,6,0,0,0,0,0,0,0,0],"split_type":[0,0,0,0,0,0,0,0,0,0,0,0,0,0,0],"sum_hessian":[3.5434E4,1.228E3,3.4206E4,1.225E3,3E0,1.14E2,3.4092E4,1.15E2,1.11E3,1E0,2E0,1.13E2,1E0,1.572E3,3.252E4],"tree_param":{"num_deleted":"0","num_feature":"21","num_nodes":"15","size_leaf_vector":"0"}},{"base_weights":[-5.247401E-4,-6.5984437E-3,-5.226678E-4,-3.8287747E-3,-1.1180587E-2,7.5571556E-3,-5.244781E-4,1.7436845E-2,-1.8580272E-3,-2.231809E-3,-5.155471E-4],"categories":[],"categories_nodes":[],"categories_segments":[],"categories_sizes":[],"default_left":[1,1,1,0,0,1,1,0,0,0,0],"id":65,"left_children":[1,3,5,-1,-1,7,9,-1,-1,-1,-1],"loss_changes":[4.4255517E-4,1.094843E-4,5.221106E-4,0E0,0E0,7.765508E-4,5.388921E-4,0E0,0E0,0E0,0E0],"parents":[2147483647,0,0,1,1,2,2,5,5,6,6],"right_children":[2,4,6,-1,-1,8,10,-1,-1,-1,-1],"split_conditions":[-1.4219227E0,-5.16936E-2,-2.6015608E0,-3.8287748E-4,-1.1180587E-3,-1.2813118E0,-2.525397E-1,1.7436845E-3,-1.8580272E-4,-2.231809E-4,-5.155471E-5],"split_indices":[6,7,5,0,0,14,2,0,0,0,0],"split_type":[0,0,0,0,0,0,0,0,0,0,0],"sum_hessian":[3.5434E4,1.1E1,3.5423E4,8E0,3E0,7E0,3.5416E4,3E0,4E0,1.83E2,3.5233E4],"tree_param":{"num_deleted":"0","num_feature":"21","num_nodes":"11","size_leaf_vector":"0"}},{"base_weights":[-4.7227216E-4,-1.4062129E-3,-4.5981322E-4,-1.5345202E-3,8.686433E-3,5.3248554E-5,-4.8909546E-4,-2.782964E-3,-6.951822E-4,-5.2347744E-4,2.7367992E-2,-6.0603954E-5,1.06957955E-2,-3.8360534E-4,-6.6677015E-4],"categories":[],"categories_nodes":[],"categories_segments":[],"categories_sizes":[],"default_left":[1,1,1,1,1,1,1,0,0,0,0,0,0,0,0],"id":66,"left_children":[1,3,5,7,9,11,13,-1,-1,-1,-1,-1,-1,-1,-1],"loss_changes":[4.116716E-4,6.1678095E-4,5.254005E-4,4.811316E-4,1.0466593E-3,2.2895131E-3,6.1979797E-4,0E0,0E0,0E0,0E0,0E0,0E0,0E0,0E0],"parents":[2147483647,0,0,1,1,2,2,3,3,4,4,5,5,6,6],"right_children":[2,4,6,8,10,12,14,-1,-1,-1,-1,-1,-1,-1,-1],"split_conditions":[-1.3581865E-2,4.1470647E-1,-2.4780059E-1,-2.3094577E-1,9.197729E-1,9.882625E-1,-1.8527642E-2,-2.782964E-4,-6.951822E-5,-5.2347747E-5,2.7367992E-3,-6.0603957E-6,1.0695796E-3,-3.8360533E-5,-6.6677014E-5],"split_indices":[8,10,17,17,0,7,18,0,0,0,0,0,0,0,0],"split_type":[0,0,0,0,0,0,0,0,0,0,0,0,0,0,0],"sum_hessian":[3.5434E4,4.65E2,3.4969E4,4.6E2,5E0,1.888E3,3.3081E4,1.84E2,2.76E2,4E0,1E0,1.869E3,1.9E1,2.0759E4,1.2322E4],"tree_param":{"num_deleted":"0","num_feature":"21","num_nodes":"15","size_leaf_vector":"0"}},{"base_weights":[-4.2495193E-4,-5.6283636E-4,-3.4167783E-4,1.0622578E-2,-5.678266E-4,-3.2564468E-4,-2.4969764E-3,2.2499206E-2,-9.4053795E-4,8.997878E-4,-5.944488E-4,-3.4468836E-4,2.0867038E-1,-7.123805E-3,-1.7245364E-3],"categories":[],"categories_nodes":[],"categories_segments":[],"categories_sizes":[],"default_left":[1,1,1,1,1,1,1,0,0,0,0,0,0,0,0],"id":67,"left_children":[1,3,5,7,9,11,13,-1,-1,-1,-1,-1,-1,-1,-1],"loss_changes":[4.066797E-4,7.506963E-4,7.6270686E-4,8.451462E-4,5.215877E-4,8.736653E-2,5.7026814E-4,0E0,0E0,0E0,0E0,0E0,0E0,0E0,0E0],"parents":[2147483647,0,0,1,1,2,2,3,3,4,4,5,5,6,6],"right_children":[2,4,6,8,10,12,14,-1,-1,-1,-1,-1,-1,-1,-1],"split_conditions":[-5.177394E-1,-1.3197759E-1,2.556448E-2,-1.8278688E-1,1.3817931E-3,2.5558624E-2,-3.34203E-1,2.2499205E-3,-9.4053794E-5,8.9978785E-5,-5.9444883E-5,-3.4468838E-5,2.0867039E-2,-7.123805E-4,-1.7245364E-4],"split_indices":[20,9,8,1,9,8,3,0,0,0,0,0,0,0,0],"split_type":[0,0,0,0,0,0,0,0,0,0,0,0,0,0,0],"sum_hessian":[3.5434E4,1.334E4,2.2094E4,5E0,1.3335E4,2.1932E4,1.62E2,2E0,3E0,2.37E2,1.3098E4,2.1931E4,1E0,2.2E1,1.4E2],"tree_param":{"num_deleted":"0","num_feature":"21","num_nodes":"15","size_leaf_vector":"0"}},{"base_weights":[-3.8183204E-4,-2.727739E-4,-4.849179E-4,4.6925284E-3,-2.808439E-4,-5.1356666E-4,2.0344844E-3,4.584857E-5,2.6058085E-2,-4.019116E-5,-4.3679262E-4,-3.6440606E-4,-7.3904573E-4,4.8587613E-2,1.1025687E-3],"categories":[],"categories_nodes":[],"categories_segments":[],"categories_sizes":[],"default_left":[1,1,1,1,1,1,1,0,0,0,0,0,0,0,0],"id":68,"left_children":[1,3,5,7,9,11,13,-1,-1,-1,-1,-1,-1,-1,-1],"loss_changes":[3.9824005E-4,6.913636E-4,1.3157623E-3,2.7786146E-3,6.452644E-4,6.0548726E-4,8.840065E-3,0E0,0E0,0E0,0E0,0E0,0E0,0E0,0E0],"parents":[2147483647,0,0,1,1,2,2,3,3,4,4,5,5,6,6],"right_children":[2,4,6,8,10,12,14,-1,-1,-1,-1,-1,-1,-1,-1],"split_conditions":[-5.8645006E-2,-4.4252282E-1,6.1399586E-2,5.0106144E-1,-3.5587263E-1,-1.8528823E-2,-1.5798199E0,4.584857E-6,2.6058087E-3,-4.019116E-6,-4.367926E-5,-3.6440608E-5,-7.390457E-5,4.8587616E-3,1.1025687E-4],"split_indices":[5,7,18,14,3,18,16,0,0,0,0,0,0,0,0],"split_type":[0,0,0,0,0,0,0,0,0,0,0,0,0,0,0],"sum_hessian":[3.5434E4,1.722E4,1.8214E4,2.7E1,1.7193E4,1.801E4,2.04E2,2.3E1,4E0,6.761E3,1.0432E4,1.0841E4,7.169E3,3E0,2.01E2],"tree_param":{"num_deleted":"0","num_feature":"21","num_nodes":"15","size_leaf_vector":"0"}},{"base_weights":[-3.434394E-4,-5.1604456E-4,-2.7852738E-4,2.0917628E-3,-5.4100313E-4,3.6717579E-3,-2.882035E-4,5.3963093E-5,9.3765765E-2,-5.138594E-4,-1.9987088E-3,8.3508587E-4,2.0599002E-2,-1.966675E-3,-2.7701206E-4],"categories":[],"categories_nodes":[],"categories_segments":[],"categories_sizes":[],"default_left":[1,1,1,1,1,1,1,0,0,0,0,0,0,0,0],"id":69,"left_children":[1,3,5,7,9,11,13,-1,-1,-1,-1,-1,-1,-1,-1],"loss_changes":[3.9687566E-4,6.3136965E-4,9.854271E-4,1.7181758E-2,3.7850463E-4,3.0078716E-3,4.8204907E-4,0E0,0E0,0E0,0E0,0E0,0E0,0E0,0E0],"parents":[2147483647,0,0,1,1,2,2,3,3,4,4,5,5,6,6],"right_children":[2,4,6,8,10,12,14,-1,-1,-1,-1,-1,-1,-1,-1],"split_conditions":[-5.469331E-1,-9.880221E-1,-5.4290843E-1,-9.892814E-1,2.7264152E-3,2.100991E-2,-2.7561269E0,5.3963095E-6,9.376577E-3,-5.1385938E-5,-1.9987089E-4,8.350859E-5,2.0599002E-3,-1.966675E-4,-2.7701206E-5],"split_indices":[16,6,16,6,18,8,4,0,0,0,0,0,0,0,0],"split_type":[0,0,0,0,0,0,0,0,0,0,0,0,0,0,0],"sum_hessian":[3.5434E4,9.682E3,2.5752E4,9.1E1,9.591E3,6.2E1,2.569E4,9E1,1E0,9.417E3,1.74E2,5.4E1,8E0,1.69E2,2.5521E4],"tree_param":{"num_deleted":"0","num_feature":"21","num_nodes":"15","size_leaf_vector":"0"}},{"base_weights":[-3.0878358E-4,-2.2014133E-4,-4.303983E-4,-1.0109794E-3,-1.5917141E-4,1.5597566E-4,-4.7789147E-4,-6.797287E-4,-2.4190296E-3,5.1189037E-3,-1.9714881E-4,2.3159463E-2,1.147219E-4,-4.8127878E-4,8.976764E-3],"categories":[],"categories_nodes":[],"categories_segments":[],"categories_sizes":[],"default_left":[1,1,1,1,1,1,1,0,0,0,0,0,0,0,0],"id":70,"left_children":[1,3,5,7,9,11,13,-1,-1,-1,-1,-1,-1,-1,-1],"loss_changes":[3.819021E-4,9.881979E-4,4.160793E-4,6.825903E-4,3.8159278E-3,1.0602009E-3,4.468828E-4,0E0,0E0,0E0,0E0,0E0,0E0,0E0,0E0],"parents":[2147483647,0,0,1,1,2,2,3,3,4,4,5,5,6,6],"right_children":[2,4,6,8,10,12,14,-1,-1,-1,-1,-1,-1,-1,-1],"split_conditions":[-4.57332E-2,-9.678566E-4,-4.3042637E-3,3.5847723E-3,1.3645997E-2,-7.186309E-1,2.2145705E0,-6.797287E-5,-2.4190296E-4,5.118904E-4,-1.9714882E-5,2.3159464E-3,1.1472191E-5,-4.812788E-5,8.976764E-4],"split_indices":[10,9,9,18,8,15,7,0,0,0,0,0,0,0,0],"split_type":[0,0,0,0,0,0,0,0,0,0,0,0,0,0,0],"sum_hessian":[3.5434E4,2.0497E4,1.4937E4,1.466E3,1.9031E4,1.119E3,1.3818E4,1.188E3,2.78E2,1.35E2,1.8896E4,1E0,1.118E3,1.3814E4,4E0],"tree_param":{"num_deleted":"0","num_feature":"21","num_nodes":"15","size_leaf_vector":"0"}},{"base_weights":[-2.7781038E-4,-3.1109323E-4,4.2955104E-5,-1.6250253E-5,-3.5971781E-4,1.9649858E-2,3.1169828E-5,3.2749625E-3,-8.9499765E-5,-3.717307E-4,3.3522532E-3,1.5260536E-2,1.7436192E-5],"categories":[],"categories_nodes":[],"categories_segments":[],"categories_sizes":[],"default_left":[1,1,1,1,1,0,1,0,0,0,0,0,0],"id":71,"left_children":[1,3,5,7,9,-1,11,-1,-1,-1,-1,-1,-1],"loss_changes":[3.7831697E-4,4.6025706E-4,7.693221E-4,1.0962415E-3,1.2301421E-3,0E0,6.9642765E-4,0E0,0E0,0E0,0E0,0E0,0E0],"parents":[2147483647,0,0,1,1,2,2,3,3,4,4,6,6],"right_children":[2,4,6,8,10,-1,12,-1,-1,-1,-1,-1,-1],"split_conditions":[2.4199007E-1,-8.713797E-2,2.4205533E-1,-9.8717463E-1,2.484212E-2,1.9649859E-3,-1.3548265E0,3.2749627E-4,-8.949976E-6,-3.717307E-5,3.3522534E-4,1.5260536E-3,1.7436192E-6],"split_indices":[2,10,2,6,8,0,20,0,0,0,0,0,0],"split_type":[0,0,0,0,0,0,0,0,0,0,0,0,0],"sum_hessian":[3.5434E4,3.2103E4,3.331E3,4.545E3,2.7558E4,1E0,3.33E3,9.8E1,4.447E3,2.747E4,8.8E1,2E0,3.328E3],"tree_param":{"num_deleted":"0","num_feature":"21","num_nodes":"13","size_leaf_vector":"0"}},{"base_weights":[-2.4991337E-4,-2.1906153E-3,-2.4424892E-4,-2.6736644E-3,4.816009E-3,2.2439783E-2,-2.4809458E-4,6.3539776E-3,-2.8338896E-3,2.0099679E-2,-5.317394E-3,-3.699758E-3,3.6434494E-2,-1.7858433E-3,-2.4043248E-4],"categories":[],"categories_nodes":[],"categories_segments":[],"categories_sizes":[],"default_left":[1,1,1,1,1,1,1,0,0,0,0,0,0,0,0],"id":72,"left_children":[1,3,5,7,9,11,13,-1,-1,-1,-1,-1,-1,-1,-1],"loss_changes":[3.8900273E-4,3.6148436E-4,3.0878547E-3,1.5831273E-4,1.191007E-3,2.3296906E-3,4.1581946E-4,0E0,0E0,0E0,0E0,0E0,0E0,0E0,0E0],"parents":[2147483647,0,0,1,1,2,2,3,3,4,4,5,5,6,6],"right_children":[2,4,6,8,10,12,14,-1,-1,-1,-1,-1,-1,-1,-1],"split_conditions":[-1.234414E0,2.1132047E-1,-1.2299654E0,-2.206121E0,1.1832211E0,5.845316E-1,-2.525397E-1,6.353978E-4,-2.8338897E-4,2.009968E-3,-5.3173944E-4,-3.699758E-4,3.6434494E-3,-1.7858433E-4,-2.4043247E-5],"split_indices":[6,7,6,19,19,1,2,0,0,0,0,0,0,0,0],"split_type":[0,0,0,0,0,0,0,0,0,0,0,0,0,0,0],"sum_hessian":[3.5434E4,1.02E2,3.5332E4,9.6E1,6E0,5E0,3.5327E4,1E0,9.5E1,2E0,4E0,2E0,3E0,1.74E2,3.5153E4],"tree_param":{"num_deleted":"0","num_feature":"21","num_nodes":"15","size_leaf_vector":"0"}},{"base_weights":[-2.2478374E-4,-2.971225E-4,-7.99033E-5,7.401767E-5,-3.4838438E-4,1.9812319E-1,-1.13487426E-4,1.0167788E-2,-3.9798542E-6,-3.4033295E-4,-3.319897E-3,-1.2519563E-4,4.0655197E-3],"categories":[],"categories_nodes":[],"categories_segments":[],"categories_sizes":[],"default_left":[1,1,1,1,1,0,1,0,0,0,0,0,0],"id":73,"left_children":[1,3,5,7,9,-1,11,-1,-1,-1,-1,-1,-1],"loss_changes":[3.7135172E-4,4.496707E-4,7.858224E-2,2.258773E-3,4.9569504E-4,0E0,5.7791575E-4,0E0,0E0,0E0,0E0,0E0,0E0],"parents":[2147483647,0,0,1,1,2,2,3,3,4,4,6,6],"right_children":[2,4,6,8,10,-1,12,-1,-1,-1,-1,-1,-1],"split_conditions":[3.9835697E-1,-8.870905E-2,3.9838505E-1,-2.1301872E-1,2.5424184E-2,1.981232E-2,2.9981132E0,1.0167788E-3,-3.9798542E-7,-3.4033295E-5,-3.319897E-4,-1.2519563E-5,4.0655196E-4],"split_indices":[16,10,16,11,8,0,13,0,0,0,0,0,0],"split_type":[0,0,0,0,0,0,0,0,0,0,0,0,0],"sum_hessian":[3.5434E4,2.3633E4,1.1801E4,2.868E3,2.0765E4,1E0,1.18E4,2.1E1,2.847E3,2.071E4,5.5E1,1.1768E4,3.2E1],"tree_param":{"num_deleted":"0","num_feature":"21","num_nodes":"13","size_leaf_vector":"0"}},{"base_weights":[-2.0171676E-4,-2.2943916E-4,1.711204E-4,-1.9510026E-4,-5.4601586E-4,-1.8910426E-3,2.8452784E-4,-1.9687024E-4,2.6236182E-2,-6.0733326E-4,3.1375447E-3,1.4031818E-2,-2.2551501E-3,1.0983963E-2,2.3822708E-4],"categories":[],"categories_nodes":[],"categories_segments":[],"categories_sizes":[],"default_left":[1,1,1,1,1,1,1,0,0,0,0,0,0,0,0],"id":74,"left_children":[1,3,5,7,9,11,13,-1,-1,-1,-1,-1,-1,-1,-1],"loss_changes":[3.6629324E-4,3.5844813E-4,5.742081E-4,1.3972807E-3,7.30776E-4,7.737407E-4,1.1496652E-3,0E0,0E0,0E0,0E0,0E0,0E0,0E0,0E0],"parents":[2147483647,0,0,1,1,2,2,3,3,4,4,5,5,6,6],"right_children":[2,4,6,8,10,12,14,-1,-1,-1,-1,-1,-1,-1,-1],"split_conditions":[1.2466419E0,7.9208946E-1,-2.505197E-1,7.919251E-1,8.3537E-2,-2.4332504E0,-2.5443769E-1,-1.9687024E-5,2.6236183E-3,-6.0733328E-5,3.1375448E-4,1.4031818E-3,-2.2551502E-4,1.0983963E-3,2.3822708E-5],"split_indices":[0,5,2,5,18,5,17,0,0,0,0,0,0,0,0],"split_type":[0,0,0,0,0,0,0,0,0,0,0,0,0,0,0],"sum_hessian":[3.5434E4,3.2982E4,2.452E3,2.9756E4,3.226E3,1.27E2,2.325E3,2.9755E4,1E0,3.174E3,5.2E1,2E0,1.25E2,9E0,2.316E3],"tree_param":{"num_deleted":"0","num_feature":"21","num_nodes":"15","size_leaf_vector":"0"}},{"base_weights":[-1.8139956E-4,-1.6737731E-4,-9.496E-4,-1.9133993E-4,5.327179E-4,-1.0718995E-3,8.769612E-3,-1.8240618E-4,-1.9291396E-3,2.3744545E-4,5.809846E-3,-1.606943E-2,-9.983141E-4,-3.1600846E-4,1.7934235E-2],"categories":[],"categories_nodes":[],"categories_segments":[],"categories_sizes":[],"default_left":[1,1,1,1,1,1,1,0,0,0,0,0,0,0,0],"id":75,"left_children":[1,3,5,7,9,11,13,-1,-1,-1,-1,-1,-1,-1,-1],"loss_changes":[3.8154353E-4,5.8392755E-4,7.641961E-4,5.220664E-4,1.7936559E-3,6.7701854E-4,6.717976E-4,0E0,0E0,0E0,0E0,0E0,0E0,0E0,0E0],"parents":[2147483647,0,0,1,1,2,2,3,3,4,4,5,5,6,6],"right_children":[2,4,6,8,10,12,14,-1,-1,-1,-1,-1,-1,-1,-1],"split_conditions":[2.9833338E0,1.579676E0,2.099144E0,1.8780512E-1,7.214929E-2,-1.3552403E0,-2.6917607E-3,-1.8240618E-5,-1.9291397E-4,2.3744546E-5,5.809846E-4,-1.6069431E-3,-9.983141E-5,-3.1600848E-5,1.7934236E-3],"split_indices":[20,4,14,18,18,8,12,0,0,0,0,0,0,0,0],"split_type":[0,0,0,0,0,0,0,0,0,0,0,0,0,0,0],"sum_hessian":[3.5434E4,3.48E4,6.34E2,3.3649E4,1.151E3,6.27E2,7E0,3.3478E4,1.71E2,1.091E3,6E1,2E0,6.25E2,4E0,3E0],"tree_param":{"num_deleted":"0","num_feature":"21","num_nodes":"15","size_leaf_vector":"0"}},{"base_weights":[-1.6324694E-4,-2.354332E-5,-2.3470972E-4,-2.8720871E-5,2.0678978E-2,2.2059805E-3,-2.4988916E-4,-1.7065356E-3,3.9449696E-6,3.2058675E-2,-1.0402077E-3,8.818038E-2,9.965722E-4,-3.123911E-4,7.968027E-5],"categories":[],"categories_nodes":[],"categories_segments":[],"categories_sizes":[],"default_left":[1,1,1,1,1,1,1,0,0,0,0,0,0,0,0],"id":76,"left_children":[1,3,5,7,9,11,13,-1,-1,-1,-1,-1,-1,-1,-1],"loss_changes":[3.537637E-4,1.2861041E-3,8.690737E-4,6.572002E-4,7.748209E-4,1.4988951E-2,4.7995453E-4,0E0,0E0,0E0,0E0,0E0,0E0,0E0,0E0],"parents":[2147483647,0,0,1,1,2,2,3,3,4,4,5,5,6,6],"right_children":[2,4,6,8,10,12,14,-1,-1,-1,-1,-1,-1,-1,-1],"split_conditions":[-2.5302553E-1,2.8889008E0,-8.2836664E-1,-1.2082558E-2,-6.0106444E-1,-1.1451848E-1,8.7197757E-1,-1.7065355E-4,3.9449696E-7,3.2058675E-3,-1.0402077E-4,8.818038E-3,9.965722E-5,-3.123911E-5,7.968028E-6],"split_indices":[5,13,6,8,0,20,19,0,0,0,0,0,0,0,0],"split_type":[0,0,0,0,0,0,0,0,0,0,0,0,0,0,0],"sum_hessian":[3.5434E4,1.1992E4,2.3442E4,1.199E4,2E0,1.44E2,2.3298E4,2.28E2,1.1762E4,1E0,1E0,1E0,1.43E2,1.9584E4,3.714E3],"tree_param":{"num_deleted":"0","num_feature":"21","num_nodes":"15","size_leaf_vector":"0"}},{"base_weights":[-1.4658847E-4,-6.474205E-4,-1.2749578E-4,-9.974694E-4,2.130558E-5,1.8825158E-1,-1.3852966E-4,-8.70323E-4,-3.9478303E-3,1.0899745E-2,-1.0124736E-4,-1.6257679E-4,3.8184444E-4],"categories":[],"categories_nodes":[],"categories_segments":[],"categories_sizes":[],"default_left":[1,1,1,1,1,0,1,0,0,0,0,0,0],"id":77,"left_children":[1,3,5,7,9,-1,11,-1,-1,-1,-1,-1,-1],"loss_changes":[3.3875508E-4,3.0456827E-4,7.09775E-2,3.1692343E-4,5.9837033E-4,0E0,4.2719796E-4,0E0,0E0,0E0,0E0,0E0,0E0],"parents":[2147483647,0,0,1,1,2,2,3,3,4,4,6,6],"right_children":[2,4,6,8,10,-1,12,-1,-1,-1,-1,-1,-1],"split_conditions":[-1.3299806E0,-1.4106683E-1,-1.3292052E0,2.2285971E-1,-2.6975167E0,1.8825158E-2,-3.2650717E-3,-8.70323E-5,-3.9478304E-4,1.0899745E-3,-1.0124736E-5,-1.625768E-5,3.8184444E-5],"split_indices":[0,17,0,10,12,0,18,0,0,0,0,0,0],"split_type":[0,0,0,0,0,0,0,0,0,0,0,0,0],"sum_hessian":[3.5434E4,1.3E3,3.4134E4,8.53E2,4.47E2,1E0,3.4133E4,8.19E2,3.4E1,4E0,4.43E2,3.2626E4,1.507E3],"tree_param":{"num_deleted":"0","num_feature":"21","num_nodes":"13","size_leaf_vector":"0"}},{"base_weights":[-1.313809E-4,-1.26326E-4,-2.0104712E-3,-1.2943003E-4,2.183623E-2,-9.6134836E-4,-2.5794683E-3,2.4188703E-3,-1.3325404E-4,3.6574148E-2,-1.8042877E-4,2.1386116E-3,-1.3188012E-3,-2.2581383E-3,-4.7357082E-3],"categories":[],"categories_nodes":[],"categories_segments":[],"categories_sizes":[],"default_left":[1,1,1,1,1,1,1,0,0,0,0,0,0,0,0],"id":78,"left_children":[1,3,5,7,9,11,13,-1,-1,-1,-1,-1,-1,-1,-1],"loss_changes":[3.36329E-4,2.4120938E-3,5.4230273E-5,3.4467247E-4,1.6289973E-3,4.160354E-5,3.1570846E-5,0E0,0E0,0E0,0E0,0E0,0E0,0E0,0E0],"parents":[2147483647,0,0,1,1,2,2,3,3,4,4,5,5,6,6],"right_children":[2,4,6,8,10,12,14,-1,-1,-1,-1,-1,-1,-1,-1],"split_conditions":[2.850889E-2,2.849314E-2,-1.9196138E-2,-1.3369539E0,-7.5049736E-2,-4.900929E-1,-2.110253E-1,2.4188704E-4,-1.3325404E-5,3.6574148E-3,-1.8042878E-5,2.1386116E-4,-1.3188012E-4,-2.2581383E-4,-4.7357084E-4],"split_indices":[8,8,18,20,5,12,17,0,0,0,0,0,0,0,0],"split_type":[0,0,0,0,0,0,0,0,0,0,0,0,0,0,0],"sum_hessian":[3.5434E4,3.534E4,9.4E1,3.5336E4,4E0,3.4E1,6E1,5.2E1,3.5284E4,2E0,2E0,3E0,3.1E1,5.4E1,6E0],"tree_param":{"num_deleted":"0","num_feature":"21","num_nodes":"15","size_leaf_vector":"0"}},{"base_weights":[-1.18151125E-4,-1.6286824E-4,8.700782E-5,-2.0672283E-3,-1.5629473E-4,1.2472006E-2,7.722366E-5,3.7812584E-3,-2.616893E-3,2.3287488E-2,-1.5952386E-4,1.856593E-2,2.2207461E-3,1.0628482E-2,6.888241E-5],"categories":[],"categories_nodes":[],"categories_segments":[],"categories_sizes":[],"default_left":[1,1,1,1,1,1,1,0,0,0,0,0,0,0,0],"id":79,"left_children":[1,3,5,7,9,11,13,-1,-1,-1,-1,-1,-1,-1,-1],"loss_changes":[3.2509898E-4,3.638852E-4,7.6754E-4,3.313658E-4,2.1987217E-3,2.711218E-4,5.5708E-4,0E0,0E0,0E0,0E0,0E0,0E0,0E0,0E0],"parents":[2147483647,0,0,1,1,2,2,3,3,4,4,5,5,6,6],"right_children":[2,4,6,8,10,12,14,-1,-1,-1,-1,-1,-1,-1,-1],"split_conditions":[2.9600482E-2,-1.234414E0,-1.2254684E0,-2.5273803E-1,-1.2331986E0,-1.8589342E0,-1.3548265E0,3.7812584E-4,-2.616893E-4,2.3287488E-3,-1.5952386E-5,1.8565931E-3,2.2207461E-4,1.0628483E-3,6.888241E-6],"split_indices":[2,6,6,2,6,5,20,0,0,0,0,0,0,0,0],"split_type":[0,0,0,0,0,0,0,0,0,0,0,0,0,0,0],"sum_hessian":[3.5434E4,2.9093E4,6.341E3,9.9E1,2.8994E4,4E0,6.337E3,8E0,9.1E1,3E0,2.8991E4,2E0,2E0,4E0,6.333E3],"tree_param":{"num_deleted":"0","num_feature":"21","num_nodes":"15","size_leaf_vector":"0"}},{"base_weights":[-1.0617862E-4,-2.4283672E-4,-3.838166E-5,-2.4784668E-4,1.4530873E-2,6.612506E-5,-3.02624E-4,-2.556945E-4,3.9463066E-3,2.0437669E-2,-1.5947558E-3,-6.277338E-4,1.1377892E-4,8.684329E-3,-3.3212343E-4],"categories":[],"categories_nodes":[],"categories_segments":[],"categories_sizes":[],"default_left":[1,1,1,1,1,1,1,0,0,0,0,0,0,0,0],"id":80,"left_children":[1,3,5,7,9,11,13,-1,-1,-1,-1,-1,-1,-1,-1],"loss_changes":[3.28296E-4,8.73286E-4,6.541112E-4,3.876611E-4,4.1359628E-4,5.6131766E-4,1.7825689E-3,0E0,0E0,0E0,0E0,0E0,0E0,0E0,0E0],"parents":[2147483647,0,0,1,1,2,2,3,3,4,4,5,5,6,6],"right_children":[2,4,6,8,10,12,14,-1,-1,-1,-1,-1,-1,-1,-1],"split_conditions":[-5.8332705E-1,1.6413844E0,3.3361477E-1,1.448439E0,2.0986743E-2,-1.587702E0,-9.8313314E-1,-2.556945E-5,3.9463068E-4,2.043767E-3,-1.5947559E-4,-6.277338E-5,1.1377892E-5,8.6843286E-4,-3.321234E-5],"split_indices":[20,6,5,5,1,1,6,0,0,0,0,0,0,0,0],"split_type":[0,0,0,0,0,0,0,0,0,0,0,0,0,0,0],"sum_hessian":[3.5434E4,1.1749E4,2.3685E4,1.1746E4,3E0,1.6973E4,6.712E3,1.1725E4,2.1E1,2E0,1E0,1.09E3,1.5883E4,2.1E1,6.691E3],"tree_param":{"num_deleted":"0","num_feature":"21","num_nodes":"15","size_leaf_vector":"0"}},{"base_weights":[-9.547507E-5,-6.07691E-4,-7.819919E-5,1.3779153E-2,-6.445652E-4,-1.1702776E-4,3.7985927E-4,2.1094348E-2,-4.256186E-4,-3.6062214E-5,-1.4048271E-3,-3.0009146E-4,-1.9065614E-5,3.0984103E-3,6.506448E-5],"categories":[],"categories_nodes":[],"categories_segments":[],"categories_sizes":[],"default_left":[1,1,1,1,1,1,1,0,0,0,0,0,0,0,0],"id":81,"left_children":[1,3,5,7,9,11,13,-1,-1,-1,-1,-1,-1,-1,-1],"loss_changes":[3.1351612E-4,6.2214374E-4,6.097401E-4,3.2071013E-4,5.338148E-4,5.6672277E-4,2.2924484E-3,0E0,0E0,0E0,0E0,0E0,0E0,0E0,0E0],"parents":[2147483647,0,0,1,1,2,2,3,3,4,4,5,5,6,6],"right_children":[2,4,6,8,10,12,14,-1,-1,-1,-1,-1,-1,-1,-1],"split_conditions":[9.95261E-3,-9.87375E-1,-1.1735601E-2,-2.5128245E-1,1.4689909E0,-1.9992E-1,1.3905125E-2,2.109435E-3,-4.256186E-5,-3.6062215E-6,-1.4048272E-4,-3.0009147E-5,-1.9065614E-6,3.0984104E-4,6.5064482E-6],"split_indices":[8,20,18,0,15,2,8,0,0,0,0,0,0,0,0],"split_type":[0,0,0,0,0,0,0,0,0,0,0,0,0,0,0],"sum_hessian":[3.5434E4,1.155E3,3.4279E4,2E0,1.153E3,3.1601E4,2.678E3,1E0,1E0,6.41E2,5.12E2,1.1015E4,2.0586E4,2.77E2,2.401E3],"tree_param":{"num_deleted":"0","num_feature":"21","num_nodes":"15","size_leaf_vector":"0"}},{"base_weights":[-8.586525E-5,-5.1362915E-3,-8.415197E-5,-2.869265E-3,-1.0980951E-2,6.7145275E-3,-8.5685286E-5,-1.7104084E-3,1.5567065E-2,-1.4380271E-3,-7.8620615E-5],"categories":[],"categories_nodes":[],"categories_segments":[],"categories_sizes":[],"default_left":[1,1,1,0,0,1,1,0,0,0,0],"id":82,"left_children":[1,3,5,-1,-1,7,9,-1,-1,-1,-1],"loss_changes":[3.0617835E-4,1.274927E-4,3.698525E-4,5.9737795E-7,0E0,6.232826E-4,3.3825563E-4,0E0,0E0,0E0,0E0],"parents":[2147483647,0,0,1,1,2,2,5,5,6,6],"right_children":[2,4,6,-1,-1,8,10,-1,-1,-1,-1],"split_conditions":[-1.4219227E0,-4.4239953E-2,-2.6015608E0,-2.869265E-4,-1.0980951E-3,1.0217633E-2,-2.525397E-1,-1.7104084E-4,1.5567065E-3,-1.4380271E-4,-7.8620615E-6],"split_indices":[6,7,5,0,0,8,2,0,0,0,0],"split_type":[0,0,0,0,0,0,0,0,0,0,0],"sum_hessian":[3.5434E4,1.1E1,3.5423E4,9E0,2E0,7E0,3.5416E4,4E0,3E0,1.83E2,3.5233E4],"tree_param":{"num_deleted":"0","num_feature":"21","num_nodes":"11","size_leaf_vector":"0"}},{"base_weights":[-7.728302E-5,7.5395033E-6,-1.7749458E-4,1.937245E-5,-4.615674E-3,-2.2280586E-4,2.2476807E-4,6.8748136E-7,1.7885286E-1,-7.2293696E-3,-1.0829328E-4,-2.9160196E-4,5.224288E-5,1.4840279E-4,1.5832461E-2],"categories":[],"categories_nodes":[],"categories_segments":[],"categories_sizes":[],"default_left":[1,1,1,1,1,1,1,0,0,0,0,0,0,0,0],"id":83,"left_children":[1,3,5,7,9,11,13,-1,-1,-1,-1,-1,-1,-1,-1],"loss_changes":[3.0120582E-4,1.0500115E-3,2.9612996E-4,6.3969515E-2,5.7648227E-4,2.762805E-4,1.9583027E-3,0E0,0E0,0E0,0E0,0E0,0E0,0E0,0E0],"parents":[2147483647,0,0,1,1,2,2,3,3,4,4,5,5,6,6],"right_children":[2,4,6,8,10,12,14,-1,-1,-1,-1,-1,-1,-1,-1],"split_conditions":[-1.6216838E-1,2.5563883E-2,8.679072E-1,2.5550105E-2,-8.219449E-2,1.032076E0,1.1396347E0,6.8748136E-8,1.7885286E-2,-7.22937E-4,-1.0829328E-5,-2.9160195E-5,5.224288E-6,1.4840279E-5,1.5832462E-3],"split_indices":[3,8,0,8,10,3,7,0,0,0,0,0,0,0,0],"split_type":[0,0,0,0,0,0,0,0,0,0,0,0,0,0,0],"sum_hessian":[3.5434E4,1.9191E4,1.6243E4,1.9143E4,4.8E1,1.4599E4,1.644E3,1.9142E4,1E0,3E1,1.8E1,1.1678E4,2.921E3,1.637E3,7E0],"tree_param":{"num_deleted":"0","num_feature":"21","num_nodes":"15","size_leaf_vector":"0"}},{"base_weights":[-6.902626E-5,-5.6907553E-5,-7.3307985E-4,8.397623E-4,-7.1756534E-5,-8.455773E-4,8.189604E-3,6.365583E-4,3.8829934E-2,-9.323994E-5,6.721894E-4,-1.4827364E-2,-7.772211E-4,-2.2376259E-4,1.665891E-2],"categories":[],"categories_nodes":[],"categories_segments":[],"categories_sizes":[],"default_left":[1,1,1,1,1,1,1,0,0,0,0,0,0,0,0],"id":84,"left_children":[1,3,5,7,9,11,13,-1,-1,-1,-1,-1,-1,-1,-1],"loss_changes":[2.8512033E-4,4.6342285E-4,6.4432464E-4,4.352384E-3,5.472233E-4,5.8868114E-4,5.7377067E-4,0E0,0E0,0E0,0E0,0E0,0E0,0E0,0E0],"parents":[2147483647,0,0,1,1,2,2,3,3,4,4,5,5,6,6],"right_children":[2,4,6,8,10,12,14,-1,-1,-1,-1,-1,-1,-1,-1],"split_conditions":[2.9833338E0,-1.5711935E-1,2.099144E0,-1.5718004E-1,1.7286379E0,-1.3552403E0,-2.6917607E-3,6.365583E-5,3.8829935E-3,-9.323994E-6,6.721894E-5,-1.4827364E-3,-7.7722114E-5,-2.237626E-5,1.665891E-3],"split_indices":[20,11,14,11,0,8,12,0,0,0,0,0,0,0,0],"split_type":[0,0,0,0,0,0,0,0,0,0,0,0,0,0,0],"sum_hessian":[3.5434E4,3.48E4,6.34E2,5.66E2,3.4234E4,6.27E2,7E0,5.64E2,2E0,3.3274E4,9.6E2,2E0,6.25E2,4E0,3E0],"tree_param":{"num_deleted":"0","num_feature":"21","num_nodes":"15","size_leaf_vector":"0"}},{"base_weights":[-6.200833E-5,1.4430644E-5,-1.6689413E-4,1.2325602E-5,2.1580745E-2,1.2263151E-2,-1.6854728E-4,-6.787445E-4,6.586981E-5,-1.576753E-4,-1.8836027E-3],"categories":[],"categories_nodes":[],"categories_segments":[],"categories_sizes":[],"default_left":[1,1,1,1,0,0,1,0,0,0,0],"id":85,"left_children":[1,3,5,7,-1,-1,9,-1,-1,-1,-1],"loss_changes":[2.8409765E-4,9.303024E-4,3.0902502E-4,7.584911E-4,0E0,0E0,2.7821917E-4,0E0,0E0,0E0,0E0],"parents":[2147483647,0,0,1,1,2,2,3,3,6,6],"right_children":[2,4,6,8,-1,-1,10,-1,-1,-1,-1],"split_conditions":[-4.57332E-2,-4.573813E-2,-2.7429466E0,-9.51971E-4,2.1580744E-3,1.2263152E-3,2.7168888E-1,-6.7874455E-5,6.5869813E-6,-1.576753E-5,-1.8836027E-4],"split_indices":[10,10,5,9,0,0,18,0,0,0,0],"split_type":[0,0,0,0,0,0,0,0,0,0,0],"sum_hessian":[3.5434E4,2.0497E4,1.4937E4,2.0496E4,1E0,1E0,1.4936E4,1.473E3,1.9023E4,1.4843E4,9.3E1],"tree_param":{"num_deleted":"0","num_feature":"21","num_nodes":"11","size_leaf_vector":"0"}},{"base_weights":[-5.571948E-5,-1.1818414E-4,6.937335E-5,2.2477045E-4,-1.6556056E-4,1.6991156E-1,4.0583098E-5,5.9563852E-5,4.04207E-3,-1.5902305E-4,-2.5804273E-3,2.6256318E-4,-1.5768857E-4],"categories":[],"categories_nodes":[],"categories_segments":[],"categories_sizes":[],"default_left":[1,1,1,1,1,0,1,0,0,0,0,0,0],"id":86,"left_children":[1,3,5,7,9,-1,11,-1,-1,-1,-1,-1,-1],"loss_changes":[2.768931E-4,3.8404146E-4,5.7702515E-2,1.809074E-3,3.2742636E-4,0E0,5.1943125E-4,0E0,0E0,0E0,0E0,0E0,0E0],"parents":[2147483647,0,0,1,1,2,2,3,3,4,4,6,6],"right_children":[2,4,6,8,10,-1,12,-1,-1,-1,-1,-1,-1],"split_conditions":[3.9835697E-1,-8.870905E-2,3.9838505E-1,-4.9108015E-3,2.5424184E-2,1.6991157E-2,-4.7740277E-2,5.9563854E-6,4.04207E-4,-1.5902306E-5,-2.5804274E-4,2.6256317E-5,-1.5768857E-5],"split_indices":[16,10,16,18,8,0,13,0,0,0,0,0,0],"split_type":[0,0,0,0,0,0,0,0,0,0,0,0,0],"sum_hessian":[3.5434E4,2.3633E4,1.1801E4,2.868E3,2.0765E4,1E0,1.18E4,2.75E3,1.18E2,2.071E4,5.5E1,5.567E3,6.233E3],"tree_param":{"num_deleted":"0","num_feature":"21","num_nodes":"13","size_leaf_vector":"0"}},{"base_weights":[-4.966386E-5,-7.826583E-5,2.2593261E-4,1.5686371E-4,-1.1704883E-4,1.8710759E-2,2.1476613E-4,9.160753E-4,-1.3325358E-4,-1.26574E-4,2.8243333E-3,1.3476511E-2,2.027505E-4],"categories":[],"categories_nodes":[],"categories_segments":[],"categories_sizes":[],"default_left":[1,1,1,1,1,0,1,0,0,0,0,0,0],"id":87,"left_children":[1,3,5,7,9,-1,11,-1,-1,-1,-1,-1,-1],"loss_changes":[2.7933775E-4,2.9277563E-4,6.837418E-4,1.001426E-3,7.7248254E-4,0E0,5.280562E-4,0E0,0E0,0E0,0E0,0E0,0E0],"parents":[2147483647,0,0,1,1,2,2,3,3,4,4,6,6],"right_children":[2,4,6,8,10,-1,12,-1,-1,-1,-1,-1,-1],"split_conditions":[2.4199007E-1,-8.713797E-2,2.4205533E-1,-5.831998E-2,2.484212E-2,1.8710758E-3,-1.3548265E0,9.160753E-5,-1.3325358E-5,-1.26574005E-5,2.8243332E-4,1.3476511E-3,2.027505E-5],"split_indices":[2,10,2,3,8,0,20,0,0,0,0,0,0],"split_type":[0,0,0,0,0,0,0,0,0,0,0,0,0],"sum_hessian":[3.5434E4,3.2103E4,3.331E3,4.545E3,2.7558E4,1E0,3.33E3,1.256E3,3.289E3,2.747E4,8.8E1,2E0,3.328E3],"tree_param":{"num_deleted":"0","num_feature":"21","num_nodes":"13","size_leaf_vector":"0"}},{"base_weights":[-4.459626E-5,-4.003089E-5,-1.7606041E-3,-4.290428E-5,1.6889472E-2,-9.28853E-4,-2.3865085E-3,-1.5429175E-4,2.410178E-5,3.4166552E-2,-2.9070664E-4,-2.0443504E-3,-4.1450904E-4,-1.3296421E-3,-2.8075958E-3],"categories":[],"categories_nodes":[],"categories_segments":[],"categories_sizes":[],"default_left":[1,1,1,1,1,1,1,0,0,0,0,0,0,0,0],"id":88,"left_children":[1,3,5,7,9,11,13,-1,-1,-1,-1,-1,-1,-1,-1],"loss_changes":[2.7753483E-4,1.7199384E-3,4.671936E-5,2.637462E-4,1.7908724E-3,2.3250072E-5,1.9853644E-5,0E0,0E0,0E0,0E0,0E0,0E0,0E0,0E0],"parents":[2147483647,0,0,1,1,2,2,3,3,4,4,5,5,6,6],"right_children":[2,4,6,8,10,12,14,-1,-1,-1,-1,-1,-1,-1,-1],"split_conditions":[2.851199E-2,2.849314E-2,-7.2432905E-1,-5.177394E-1,-7.5049736E-2,-9.5790744E-1,2.5310202E-3,-1.5429176E-5,2.410178E-6,3.4166554E-3,-2.9070665E-5,-2.0443504E-4,-4.1450905E-5,-1.3296421E-4,-2.807596E-4],"split_indices":[8,8,15,20,5,15,9,0,0,0,0,0,0,0,0],"split_type":[0,0,0,0,0,0,0,0,0,0,0,0,0,0,0],"sum_hessian":[3.5434E4,3.5341E4,9.3E1,3.5336E4,5E0,4.1E1,5.2E1,1.3272E4,2.2064E4,2E0,3E0,1.2E1,2.9E1,1.6E1,3.6E1],"tree_param":{"num_deleted":"0","num_feature":"21","num_nodes":"15","size_leaf_vector":"0"}},{"base_weights":[-4.0060044E-5,-9.225709E-6,-2.8681857E-4,1.0598443E-4,-1.297561E-4,-3.531557E-4,3.180034E-3,1.17811396E-4,-4.1178074E-3,-1.3395425E-4,5.753729E-3,-3.8488177E-4,3.1277686E-3,2.938405E-2,2.0440328E-3],"categories":[],"categories_nodes":[],"categories_segments":[],"categories_sizes":[],"default_left":[1,1,1,1,1,1,1,0,0,0,0,0,0,0,0],"id":89,"left_children":[1,3,5,7,9,11,13,-1,-1,-1,-1,-1,-1,-1,-1],"loss_changes":[2.6960933E-4,4.3743293E-4,9.0632826E-4,8.0505427E-4,3.8102365E-4,4.2781848E-4,2.1427548E-3,0E0,0E0,0E0,0E0,0E0,0E0,0E0,0E0],"parents":[2147483647,0,0,1,1,2,2,3,3,4,4,5,5,6,6],"right_children":[2,4,6,8,10,12,14,-1,-1,-1,-1,-1,-1,-1,-1],"split_conditions":[7.464906E-1,-1.6216838E-1,1.0501832E-1,2.556448E-2,7.390059E-1,2.9599366E0,1.0896428E-1,1.178114E-5,-4.1178075E-4,-1.3395425E-5,5.753729E-4,-3.848818E-5,3.1277686E-4,2.9384051E-3,2.0440329E-4],"split_indices":[5,3,18,8,5,3,18,0,0,0,0,0,0,0,0],"split_type":[0,0,0,0,0,0,0,0,0,0,0,0,0,0,0],"sum_hessian":[3.5434E4,3.1499E4,3.935E3,1.6105E4,1.5394E4,3.862E3,7.3E1,1.6061E4,4.4E1,1.5384E4,1E1,3.828E3,3.4E1,2E0,7.1E1],"tree_param":{"num_deleted":"0","num_feature":"21","num_nodes":"15","size_leaf_vector":"0"}},{"base_weights":[-3.5953075E-5,-9.024049E-5,1.0480816E-4,-6.849735E-4,-6.606029E-5,1.165767E-2,9.8938486E-5,-5.7821604E-4,-3.1037505E-3,1.612677E-1,-7.9188045E-5,1.7357761E-2,2.0716903E-3,6.8958984E-3,9.1337155E-5],"categories":[],"categories_nodes":[],"categories_segments":[],"categories_sizes":[],"default_left":[1,1,1,1,1,1,1,0,0,0,0,0,0,0,0],"id":90,"left_children":[1,3,5,7,9,11,13,-1,-1,-1,-1,-1,-1,-1,-1],"loss_changes":[2.7078827E-4,3.6771403E-4,6.6767185E-4,2.561696E-4,5.2061394E-2,2.3724488E-4,5.0874456E-4,0E0,0E0,0E0,0E0,0E0,0E0,0E0,0E0],"parents":[2147483647,0,0,1,1,2,2,3,3,4,4,5,5,6,6],"right_children":[2,4,6,8,10,12,14,-1,-1,-1,-1,-1,-1,-1,-1],"split_conditions":[-7.441366E-2,-1.3299806E0,-1.2277803E0,2.2285971E-1,-1.3292052E0,-1.8589342E0,-2.9808884E0,-5.7821606E-5,-3.1037506E-4,1.612677E-2,-7.918805E-6,1.7357761E-3,2.0716903E-4,6.895898E-4,9.133716E-6],"split_indices":[2,0,6,10,0,5,19,0,0,0,0,0,0,0,0],"split_type":[0,0,0,0,0,0,0,0,0,0,0,0,0,0,0],"sum_hessian":[3.5434E4,2.5572E4,9.862E3,9.98E2,2.4574E4,4E0,9.858E3,9.57E2,4.1E1,1E0,2.4573E4,2E0,2E0,1E1,9.848E3],"tree_param":{"num_deleted":"0","num_feature":"21","num_nodes":"15","size_leaf_vector":"0"}},{"base_weights":[-3.1838714E-5,-4.981842E-4,-1.6111551E-5,1.3081762E-2,-5.3305563E-4,-3.9833114E-5,5.5988296E-4,2.0064713E-2,-4.420709E-4,1.3619824E-4,-1.0879779E-3,-8.248666E-5,2.4851743E-4,2.9000881E-4,8.600449E-3],"categories":[],"categories_nodes":[],"categories_segments":[],"categories_sizes":[],"default_left":[1,1,1,1,1,1,1,0,0,0,0,0,0,0,0],"id":91,"left_children":[1,3,5,7,9,11,13,-1,-1,-1,-1,-1,-1,-1,-1],"loss_changes":[2.5988257E-4,5.5439986E-4,4.6840677E-4,2.9217888E-4,4.2872515E-4,4.0497075E-4,2.939946E-3,0E0,0E0,0E0,0E0,0E0,0E0,0E0,0E0],"parents":[2147483647,0,0,1,1,2,2,3,3,4,4,5,5,6,6],"right_children":[2,4,6,8,10,12,14,-1,-1,-1,-1,-1,-1,-1,-1],"split_conditions":[9.95261E-3,-9.87375E-1,-3.6367844E-3,-2.5128245E-1,1.100275E0,8.473443E-1,3.9230222E-1,2.0064714E-3,-4.420709E-5,1.3619824E-5,-1.08797794E-4,-8.248666E-6,2.4851744E-5,2.9000881E-5,8.600449E-4],"split_indices":[8,20,18,0,20,0,7,0,0,0,0,0,0,0,0],"split_type":[0,0,0,0,0,0,0,0,0,0,0,0,0,0,0],"sum_hessian":[3.5434E4,1.155E3,3.4279E4,2E0,1.153E3,3.2924E4,1.355E3,1E0,1E0,5.23E2,6.3E2,2.8682E4,4.242E3,1.312E3,4.3E1],"tree_param":{"num_deleted":"0","num_feature":"21","num_nodes":"15","size_leaf_vector":"0"}},{"base_weights":[-2.8576549E-5,4.0953757E-5,-1.303609E-4,3.8149836E-5,1.4787048E-2,5.4534576E-3,-1.4280267E-4,2.0520398E-4,-1.068512E-4,1.9585198E-2,1.9629917E-4,2.8221385E-4,8.2881E-2,-2.1862258E-4,1.8178586E-4],"categories":[],"categories_nodes":[],"categories_segments":[],"categories_sizes":[],"default_left":[1,1,1,1,1,1,1,0,0,0,0,0,0,0,0],"id":92,"left_children":[1,3,5,7,9,11,13,-1,-1,-1,-1,-1,-1,-1,-1],"loss_changes":[2.507823E-4,8.69953E-4,9.999333E-4,5.099408E-4,2.7618988E-4,1.2789304E-2,3.5322178E-4,0E0,0E0,0E0,0E0,0E0,0E0,0E0,0E0],"parents":[2147483647,0,0,1,1,2,2,3,3,4,4,5,5,6,6],"right_children":[2,4,6,8,10,12,14,-1,-1,-1,-1,-1,-1,-1,-1],"split_conditions":[8.1942946E-2,8.190155E-2,-9.837753E-1,-1.921008E-1,-9.505086E-2,-9.882651E-1,9.167354E-1,2.0520398E-5,-1.068512E-5,1.95852E-3,1.9629917E-5,2.8221386E-5,8.2881E-3,-2.1862257E-5,1.8178585E-5],"split_indices":[5,5,6,3,0,6,19,0,0,0,0,0,0,0,0],"split_type":[0,0,0,0,0,0,0,0,0,0,0,0,0,0,0],"sum_hessian":[3.5434E4,2.1053E4,1.4381E4,2.105E4,3E0,3.1E1,1.435E4,9.781E3,1.1269E4,2E0,1E0,3E1,1E0,1.1633E4,2.717E3],"tree_param":{"num_deleted":"0","num_feature":"21","num_nodes":"15","size_leaf_vector":"0"}},{"base_weights":[-2.5428173E-5,-7.4391515E-4,-1.5436468E-5,-9.083941E-4,2.6066136E-3,1.0436352E-4,-7.569642E-5,-3.6883724E-4,-1.797326E-3,1.196759E-2,6.008385E-6,9.9319484E-5,1.9732911E-2,1.8760012E-3,-8.7513945E-5],"categories":[],"categories_nodes":[],"categories_segments":[],"categories_sizes":[],"default_left":[1,1,1,1,1,1,1,0,0,0,0,0,0,0,0],"id":93,"left_children":[1,3,5,7,9,11,13,-1,-1,-1,-1,-1,-1,-1,-1],"loss_changes":[2.5437318E-4,2.701983E-4,2.523169E-4,2.2188513E-4,5.598448E-4,1.1561264E-3,5.364997E-4,0E0,0E0,0E0,0E0,0E0,0E0,0E0,0E0],"parents":[2147483647,0,0,1,1,2,2,3,3,4,4,5,5,6,6],"right_children":[2,4,6,8,10,12,14,-1,-1,-1,-1,-1,-1,-1,-1],"split_conditions":[-2.3101175E0,1.3532505E0,-2.5302553E-1,1.4020243E-1,-8.7414056E-2,2.8889008E0,-8.2836664E-1,-3.6883725E-5,-1.7973261E-4,1.196759E-3,6.008385E-7,9.931949E-6,1.9732912E-3,1.8760013E-4,-8.7513945E-6],"split_indices":[1,14,5,16,10,13,6,0,0,0,0,0,0,0,0],"split_type":[0,0,0,0,0,0,0,0,0,0,0,0,0,0,0],"sum_hessian":[3.5434E4,4.85E2,3.4949E4,4.63E2,2.2E1,1.1696E4,2.3253E4,2.89E2,1.74E2,4E0,1.8E1,1.1694E4,2E0,1.39E2,2.3114E4],"tree_param":{"num_deleted":"0","num_feature":"21","num_nodes":"15","size_leaf_vector":"0"}},{"base_weights":[-2.2796647E-5,-4.6354076E-3,-2.1233465E-5,-2.478236E-3,-1.0280844E-2,6.112561E-3,-2.261837E-5,-8.6742104E-4,-2.7725124E-3,1.4064394E-2,-1.4714178E-3,-1.47786495E-5,-1.143415E-3],"categories":[],"categories_nodes":[],"categories_segments":[],"categories_sizes":[],"default_left":[1,1,1,1,0,1,1,0,0,0,0,0,0],"id":94,"left_children":[1,3,5,7,-1,9,11,-1,-1,-1,-1,-1,-1],"loss_changes":[2.5540026E-4,1.2065974E-4,3.0105494E-4,2.335306E-6,0E0,5.0314685E-4,3.1118275E-4,0E0,0E0,0E0,0E0,0E0,0E0],"parents":[2147483647,0,0,1,1,2,2,3,3,5,5,6,6],"right_children":[2,4,6,8,-1,10,12,-1,-1,-1,-1,-1,-1],"split_conditions":[-1.4219227E0,-4.4239953E-2,-2.6015608E0,-3.8883713E-1,-1.0280844E-3,-1.2813118E0,2.1996778E-1,-8.6742104E-5,-2.7725124E-4,1.4064395E-3,-1.4714179E-4,-1.477865E-6,-1.143415E-4],"split_indices":[6,7,5,7,0,14,18,0,0,0,0,0,0],"split_type":[0,0,0,0,0,0,0,0,0,0,0,0,0],"sum_hessian":[3.5434E4,1.1E1,3.5423E4,9E0,2E0,7E0,3.5416E4,2E0,7E0,3E0,4E0,3.5171E4,2.45E2],"tree_param":{"num_deleted":"0","num_feature":"21","num_nodes":"13","size_leaf_vector":"0"}},{"base_weights":[-2.0524047E-5,1.89241E-3,-2.4201354E-5,3.3438606E-3,-7.378393E-4,-7.163966E-4,-1.4194453E-5,1.3329877E-2,2.550958E-3,-1.347683E-3,-1.6241342E-4,-3.6347922E-4,-2.1037427E-3,-9.038945E-5,7.847839E-5],"categories":[],"categories_nodes":[],"categories_segments":[],"categories_sizes":[],"default_left":[1,1,1,1,1,1,1,0,0,0,0,0,0,0,0],"id":95,"left_children":[1,3,5,7,9,11,13,-1,-1,-1,-1,-1,-1,-1,-1],"loss_changes":[2.493114E-4,2.6206925E-4,2.449744E-4,3.1438528E-4,8.554113E-6,2.4600304E-4,2.461961E-4,0E0,0E0,0E0,0E0,0E0,0E0,0E0,0E0],"parents":[2147483647,0,0,1,1,2,2,3,3,4,4,5,5,6,6],"right_children":[2,4,6,8,10,12,14,-1,-1,-1,-1,-1,-1,-1,-1],"split_conditions":[-1.1777487E0,-6.160351E-2,-2.3213825E0,-2.7550047E-2,2.2253597E-2,8.9441395E-1,-1.6436116E-1,1.3329877E-3,2.550958E-4,-1.347683E-4,-1.6241342E-5,-3.6347923E-5,-2.1037427E-4,-9.038945E-6,7.84784E-6],"split_indices":[15,10,16,11,3,15,2,0,0,0,0,0,0,0,0],"split_type":[0,0,0,0,0,0,0,0,0,0,0,0,0,0,0],"sum_hessian":[3.5434E4,6.7E1,3.5367E4,4.3E1,2.4E1,5.03E2,3.4864E4,2E0,4.1E1,1.1E1,1.3E1,4.02E2,1.01E2,1.9133E4,1.5731E4],"tree_param":{"num_deleted":"0","num_feature":"21","num_nodes":"15","size_leaf_vector":"0"}},{"base_weights":[-1.8438059E-5,-1.5101544E-4,3.141109E-5,1.9606983E-3,-1.7125384E-4,3.6516485E-3,2.253225E-5,2.5370804E-4,7.864841E-2,-1.4152474E-4,-1.3543756E-3,1.8833263E-3,2.9263569E-2,1.2297748E-5,1.2643085E-3],"categories":[],"categories_nodes":[],"categories_segments":[],"categories_sizes":[],"default_left":[1,1,1,1,1,1,1,0,0,0,0,0,0,0,0],"id":96,"left_children":[1,3,5,7,9,11,13,-1,-1,-1,-1,-1,-1,-1,-1],"loss_changes":[2.3419004E-4,4.141648E-4,8.2770985E-4,1.2023323E-2,3.3718906E-4,2.7981652E-3,3.2649032E-4,0E0,0E0,0E0,0E0,0E0,0E0,0E0,0E0],"parents":[2147483647,0,0,1,1,2,2,3,3,4,4,5,5,6,6],"right_children":[2,4,6,8,10,12,14,-1,-1,-1,-1,-1,-1,-1,-1],"split_conditions":[-5.469331E-1,-9.880221E-1,-5.4290843E-1,-9.892814E-1,-3.095678E-3,5.0207365E-1,1.0133305E0,2.5370804E-5,7.864841E-3,-1.4152474E-5,-1.3543757E-4,1.8833263E-4,2.9263569E-3,1.2297749E-6,1.2643085E-4],"split_indices":[16,6,16,6,18,12,7,0,0,0,0,0,0,0,0],"split_type":[0,0,0,0,0,0,0,0,0,0,0,0,0,0,0],"sum_hessian":[3.5434E4,9.682E3,2.5752E4,9.1E1,9.591E3,6.2E1,2.569E4,9E1,1E0,9.357E3,2.34E2,5.9E1,3E0,2.5481E4,2.09E2],"tree_param":{"num_deleted":"0","num_feature":"21","num_nodes":"15","size_leaf_vector":"0"}},{"base_weights":[-1.628435E-5,-1.2552073E-3,-1.0946729E-5,-5.006216E-3,-5.819119E-4,2.4985295E-4,-4.161752E-5,-2.9480166E-3,-1.7744873E-2,6.0849916E-3,-8.9726795E-4,1.8563388E-4,3.98956E-2,-3.6068803E-5,-2.8610388E-3],"categories":[],"categories_nodes":[],